34 128
34 -0.0006810538 -0.0018105074 0.0018744244 -0.00033159892 0.0034042825 0.0035228573 -0.00093970547 0.0022991586 0.0033213191 0.0011665106 -0.0025481912 0.0025164222 0.00024976008 0.0033241857 -0.0024934995 -0.0036276698 0.0024254369 -0.0013831989 0.0020835495 -0.0010059003 0.0033542777 0.0029856244 0.002594631 0.0028114028 0.0036999776 -0.0024194089 0.00085986685 -0.0002877794 -0.0014720251 0.00080607634 0.0039058134 -0.00013375493 -0.0031446386 -0.00011806008 -0.0006679527 -0.002069351 0.00201717 0.0010150293 0.000111982445 0.00306445 0.0021254534 -0.0030973556 -0.0038810198 -0.0015990814 -0.0022739102 -0.0025785286 0.0029159056 0.0030289625 0.0009064698 -0.0025054151 -0.0021465004 -0.00022393656 -0.003618761 0.0037581369 -0.0002411787 -0.00280708 0.0009493541 -0.0014684018 -0.0017923255 0.0034821916 0.0014434365 0.0005918625 0.0009032011 -0.0008744311 -0.003342196 -0.003276916 0.0009251054 -0.0029776103 0.0033290272 0.00019590855 0.0014859062 -0.0016850082 0.0021468883 -0.002493233 0.0036777507 0.003351951 -0.0003449576 -0.00106375 -0.00045934616 -0.0018380923 -0.0036214802 -0.0020639973 -0.0018495109 0.0017677356 -0.0021610162 -0.0027459492 -0.0027989496 -0.0031759962 -0.0016781316 0.00026299155 -0.0018536729 0.0036445002 0.0019620622 -0.00062215514 -0.003725947 -0.0031050572 0.0002496757 0.0023856773 -0.001717051 0.0030419296 0.0011396225 -0.0036906735 -0.00043409312 0.0031469844 0.00083535525 0.0037512816 0.0020805162 -0.0018800017 0.0016859998 -0.0010893892 0.001596149 0.0006310419 -0.0008740294 -0.000371523 0.00074944197 -0.0025608065 0.0005487355 -0.002660148 -0.0032119416 8.383786e-05 -0.0009033013 -0.00069438905 -0.001966061 0.0022368084 -0.0012456421 0.0033977088 0.002415336 -0.0015821876
1 0.0031019072 0.0018039269 -0.00012919056 0.0018785284 -0.00079346396 0.0023914527 -0.0019259288 -0.0021238162 0.003072512 -0.0038647142 -0.001215749 -0.0036201454 -0.001995406 0.00021137523 -0.0010158697 -0.0037948592 -0.00020203395 -0.0024364819 0.00070182927 0.0033414098 -0.0030686248 0.0011075317 -0.0017581095 0.0029041532 -0.00017278937 -0.0014866013 -0.0013562114 -0.00014780056 -0.000962233 -0.0009820581 0.0026309332 0.0019288495 0.003456515 -0.0020650374 0.0031472873 -0.0034032948 0.002530336 0.0030126623 0.00019884278 0.002524463 0.00065941556 0.0032573321 -2.974587e-05 0.0029758955 0.0010809825 -0.0029681078 6.2217616e-05 -0.0038218757 -0.0004150857 0.0019941581 -0.0031543183 -0.0016138261 -0.0035651617 -0.0035210822 -0.0025206315 0.0023875025 -0.003648038 0.0027783096 0.0029486637 -0.0033215731 -0.0026137668 -0.0015020932 -0.0037286668 -0.0012538212 0.0031182233 -0.0010217382 0.0024361787 0.0027328234 0.00044438164 0.001073048 0.0025223622 -0.00023468921 0.0010332308 -0.0022229715 0.0020832624 0.0014192011 0.00082570437 -0.0026131433 -0.0018326577 0.0037550186 -0.0022202453 0.0036762895 0.0016505141 -0.00022308539 -0.0034181713 -0.0020135 0.0035881482 0.0016853078 0.0019370497 -0.0020509518 0.0016113166 3.0753467e-06 0.0012893088 -0.0022785212 -0.002593255 0.0032707606 -5.5669316e-06 0.0016208336 0.00051554927 0.0012245122 -0.00127458 0.0023333519 0.0034298692 -0.002846834 -0.0038682553 0.0003795837 0.0024022667 -0.0038391165 0.0024203777 -0.0023629132 -0.0038994139 0.003742169 -0.0003063477 0.0037535427 0.0035777288 -0.0003322735 -0.0018555352 0.0010709839 0.0038668565 0.00088996923 0.0011693335 0.0024966937 -0.003488779 0.0036870837 0.0017590824 -0.00045364926 0.0021251275 -0.0033810877
33 0.000983975 0.0016186471 -0.0020652672 -0.0010618748 -0.0014336552 0.0013317546 0.0012113445 0.0010033523 -0.0026802295 -0.001190477 0.0015503166 -0.0014784355 -0.0029592365 0.0016158486 -0.002875872 -0.0018010411 0.0032245598 0.00032783995 -0.0015716401 -0.00084547576 0.0015247249 -0.00090898067 -0.0036332433 0.0020837802 0.0006763591 0.0022088483 -0.0027939922 -0.0028689816 -0.0036459968 0.0038449191 -0.00079785497 -0.0008697923 0.0015997315 0.0038367712 0.0017831705 0.0004545047 -0.0037940391 -0.0018529854 -0.0038918993 -0.0018116382 -0.0028761143 -0.00053698017 0.0028830927 -0.003603021 0.0010813606 8.2503204e-05 -0.0004941875 -0.00036090752 0.00039030198 0.0029002621 -0.00072978373 -0.0013365694 0.002610453 -0.0011357779 -0.00011595013 0.0023007751 -0.003693068 -7.195418e-05 -0.003229443 -0.0028446023 -0.0018371929 -0.0031729743 -0.00018852226 0.0026074066 0.0029472532 0.0014654807 0.0013906603 0.0006283078 0.002131145 -0.0032996687 0.0032448745 -0.0020371089 0.0020908732 -0.00333203 -0.00079680985 -0.0013159529 0.002715694 0.0005688243 -0.0038795194 0.0015524641 -0.0033888235 0.0038645023 0.0011265064 0.003001439 -0.0009007415 -6.9018715e-05 0.0008108984 -0.0024866774 -0.0020765155 0.0017866158 -0.0020909535 -0.0014162508 0.002648313 -0.001737847 -0.0020456212 0.001430983 0.00080164714 0.0015648631 0.00066444196 0.00092280086 0.0033626226 0.0020212042 -0.0023016434 -0.0012660563 -0.0038154074 0.0010680555 -0.0033275601 0.003112219 0.0022160423 0.0003770632 0.0025092175 0.0016117428 -0.0013114532 0.000831985 -0.0028742214 -0.0021781174 0.0010318981 -0.000115220864 -0.0038335163 0.0021002644 0.0009684444 -0.0028321818 0.0012140352 0.0005586392 0.00027976843 -0.00018733233 0.0002592722 0.0019107409
3 -0.0018130869 -0.0036777963 -0.0017028393 -0.0037707645 0.0022528449 0.000413554 0.0015440765 0.0014260629 0.0011601995 0.00064886623 -0.00084236613 -0.0028595654 -0.0011250982 0.0017788952 0.002865318 -0.0010040752 -0.0034287507 -0.0012512371 0.0006317943 0.0014076603 -0.002126275 -0.0021888027 0.0002493672 0.0023785958 -0.0014111907 0.0005072811 -0.0014144324 -0.0034908145 0.0014587695 0.0024988083 -0.0014227789 0.0017297519 0.0010872856 -0.0034332734 -0.0030086406 0.0026670084 -0.00030681447 0.0038015798 0.0022304724 -0.00044690943 -0.00051582867 0.0020333778 -0.0007228779 0.0026747517 0.0038135224 0.00028330323 -0.0036922216 0.0020136454 -0.0029545259 0.00018768644 -0.00048566487 0.0013667393 0.0025317282 -0.0037818376 0.0011247571 0.0006054513 -0.0017299862 -0.00069180265 0.0016092466 0.0019668823 -0.00038400633 0.0007521233 -0.00032989818 -0.002160112 0.0007218232 0.0020790102 0.00199862 -0.0012978446 0.0023422653 0.0035391536 -0.001437057 -0.0004309435 -0.0018779575 -0.0010291508 -0.0011304937 0.0025713374 -0.0019827182 0.0018950439 0.0029086987 -0.0034617933 -0.0033438653 -0.0005228675 -0.00381095 0.0019655244 0.0018964334 -0.0025440955 0.001716956 -0.0015735457 -0.001314937 -0.0019126815 -0.0002877939 -0.00187071 0.0024972882 0.00094194576 -0.003213887 0.0027617144 -0.0030106443 -0.0013114313 0.0027431273 0.0032728892 0.000645727 -0.00048824542 -0.0006689526 0.0038452772 -0.0023887781 0.0023481643 -0.0026012599 -0.0009768624 -3.236584e-05 -0.0011723044 0.0022844991 0.0004659956 -0.0034771443 0.0018252379 0.002515933 -0.003721371 -0.0006230031 -0.0026910445 0.0022247504 -0.000486439 -0.0012824513 0.0038181636 -0.0028199896 -0.0027274012 0.0018279442 0.0031612644 0.0024473646 0.001823846
2 -3.932501e-05 -0.0035576958 -5.820339e-05 0.0022347013 0.002299698 0.0023875549 0.00262188 0.0008061237 -0.002101942 0.0016560652 0.00017054229 0.0013551828 -0.0032743749 0.0019756735 0.0012502796 -0.0033762148 -3.7590293e-05 -0.0004943197 0.0022835673 -0.0023582168 -0.0036654589 -0.0033238728 0.0013219685 0.0033410795 -0.002975734 -0.0023033703 -0.00027031222 0.0004147052 0.0019451464 -0.0006472419 0.0037846486 -0.0011551863 -0.0021354556 -0.0029176238 -0.0028509411 0.00036178983 -0.0033221683 -6.896142e-06 -0.0014467159 -0.0024163085 0.0006536699 0.002504783 -0.001435835 -0.0032172704 -0.0029921655 0.0023306117 -0.0013416433 0.0020061159 -0.0017521319 -4.8856513e-05 -0.0003104525 -0.002314028 0.00030181048 -0.0020160226 -0.0020045904 0.0018191076 0.00044924775 0.00078203506 0.0032788985 -0.0007569597 -0.0035426165 -0.0027465746 0.0034448516 0.0025606123 0.0026836442 0.003216907 0.003217203 -0.0037176174 -0.0025517093 -0.003572505 -0.0018370827 0.0036787956 0.000633776 -0.0024289521 0.00052786275 0.0007769863 -0.001275003 0.0005233138 0.001886961 0.00089061115 0.002740102 0.0005928414 0.0007817551 -0.0006613872 1.9190632e-06 -0.0009355431 0.0018221961 0.0011666788 -0.0036022735 0.003875146 0.0020842291 0.001681823 -0.00028626894 0.0010758851 -0.0024203968 -0.00013784962 -0.002675769 0.0013816945 -0.002390611 -0.00084337767 -0.0038514428 -0.0002662851 0.0019743638 -0.0025320996 -0.0010157601 0.0009807583 0.0029723637 6.715766e-05 0.00029264504 0.0015575716 -0.002386159 0.003796266 0.0006930257 -0.002744021 -0.0016843235 0.0037612559 0.0038398872 -4.221744e-05 9.503348e-05 -0.0038682553 -0.0011099094 0.0036303455 0.0020090116 0.0018457944 -0.0031084898 0.0032038647 -0.003620561 -0.0006329426
32 0.0032357986 -0.0016886137 -0.0038645416 -0.0018159244 -0.00033622782 -0.0003730519 -0.0025254637 -0.0020973464 -0.0017006078 0.0026218595 -0.00113414 0.003696413 -0.0004512691 -0.0017640166 -0.0007176929 0.00046982654 0.0017680101 -0.00015415273 0.00043074499 0.0015431176 0.0022146523 -0.0020362367 -0.0015920778 0.00073554163 -0.0013270024 -0.0020257942 0.0012712557 -0.0023919137 0.00030239913 -0.002299233 -0.00014226929 -0.003321659 -0.003571002 -0.0022426203 0.003426102 0.0006642966 0.00080236106 0.0035220855 0.0006201587 -0.0034645223 0.0015776379 -0.0017777693 0.00380992 0.0034082225 0.0037721712 0.0033172343 -0.0024492675 0.00088542665 0.0038993633 0.0031157595 -0.0019982073 -0.0029444376 0.0016234431 -0.0026742164 0.0025748888 -0.0012609701 0.0011688379 -0.003062166 0.0022370673 -0.0034237376 0.0022730215 0.0014608614 -0.00027358945 0.0026775717 -0.0006652232 -0.0038856207 -0.0025074843 0.0024256075 0.00022811994 0.002582995 0.0032918463 0.002674686 -0.0038896676 -0.0035128598 -9.999056e-05 0.002588666 0.0037478828 0.0010388385 0.0016500922 0.0017889426 -0.002134243 -0.0015693739 -0.0011756859 0.0016684099 0.0029020787 -0.0007189321 -0.0019363145 -0.0037266226 -0.0024860562 -0.00076533394 -0.0017101745 3.531965e-05 -0.0038894522 0.0022400972 -0.00033493707 0.000110198984 0.0033829354 0.003716683 0.00015576917 -2.9663355e-05 -0.0024164338 -0.0038939284 0.0013207069 -0.0020541726 0.00020852365 0.001570544 0.000837032 -0.0026518996 0.0008482498 0.00353601 0.0006580671 -0.0033279022 -0.0021437285 -0.0019799983 -0.0018842638 -0.0027683096 -0.0029319702 -0.0036476583 0.0022205978 -0.0036306537 -0.0018187513 0.0030735987 0.00095923425 -0.0025239924 0.00025033194 0.00086308125 -0.002256741 0.00088024215
4 -0.0006591358 0.0032052093 0.0036889429 0.0031355722 -0.0006659662 0.0029471552 6.0841256e-05 -0.00027559625 0.0030962627 0.0016024926 -0.0018009878 -0.00033043374 0.0029583203 0.0020799793 -0.0022864765 -0.0037178937 -0.0011402627 -0.0013478826 -0.0027835194 -0.0016362899 0.00075628323 0.0036052186 0.0019274658 0.00048241235 -0.00020003678 0.0018594338 -0.001878594 -0.0033752231 -0.001716644 0.0033566905 0.0013877329 -0.0022915616 0.0019905688 0.0032539435 -0.0022912505 0.0019090895 -0.0012413772 0.001981969 0.0015708534 0.0015479424 -0.0004346044 0.0010089879 0.0013395989 -0.0018123914 0.00069014565 0.0034036622 -0.0023633882 -0.0023097992 0.0016220696 -0.002621376 -0.003070233 -0.0018590855 0.0005794888 -0.0030271395 0.0029027567 -0.003219048 0.00028215957 -0.0015999285 -0.00018484776 0.003778202 -0.003761753 0.002166856 0.002168674 -0.002296079 0.0005877687 -0.0014458096 0.003332052 0.0031607237 -0.0013820105 -0.0013949379 0.002770901 0.0037622927 -0.0008726088 -0.00061942794 -0.00049165636 -0.00053586136 0.00057463656 0.00015906496 -0.0007352603 0.0024754587 -0.0012736786 0.0008269437 0.0011327645 0.0014132136 -0.0024271712 0.00016021897 0.0009849264 0.0037129433 0.0031974863 -0.0007701285 -0.003873614 0.0032352607 0.0009843574 -0.0033136015 -0.0022336603 0.0032814026 0.00052084547 0.001623987 -0.0030046538 -0.0030620417 0.00022207295 0.0024589414 0.0036919708 -0.003749749 -0.002972904 -0.0012267224 0.0015011387 0.0030722416 -0.0008776403 0.00013626894 -0.0018203314 0.0007834929 0.0033843413 0.00035716765 -0.0011427763 0.000100662764 -0.0012922664 0.001853372 0.00020146 -0.002874766 -0.0018752915 0.0029418815 -9.999476e-06 -0.001667931 0.0012334121 0.0010708104 0.0012585127 0.00036952438
24 -0.0034422267 0.0006715843 0.002813635 -0.0014056287 -0.0028753395 0.0012771398 0.0021126082 -0.0014297627 -0.0022557369 0.00329309 -0.0030591188 0.0027856296 0.0020310997 -0.002305432 -0.0010306713 -0.0033295215 0.0018847428 0.0020192708 -0.0037626454 0.003096142 0.0015931231 0.003326614 0.0001267505 -0.0036775228 0.00030230285 0.0018269139 0.002679704 0.000203678 0.0020014883 -0.0014337398 -0.0038586548 0.00055777 -0.0025875305 -0.0015604921 -0.001357708 -0.0018351192 0.0008049983 0.0022152313 0.0017420949 0.0024845982 0.00028688522 -0.0036263517 0.000515188 -0.002474725 -0.0037303066 -0.0014897612 -0.0035767662 -6.963494e-05 0.0012984944 -0.0034969666 0.0015976281 -0.003242887 -0.0012863203 0.0016867983 -0.0037826675 0.0013466635 0.0015136107 -0.001962977 0.001961395 0.00094943185 -0.0038659172 -0.0016979265 -0.00025656007 0.0002957179 0.0029723907 0.0025644721 -0.0014317099 -0.002176423 -0.0031060176 -0.0025889585 -0.0018538763 0.0034928177 -0.003763377 0.002684496 0.0013048452 0.000567819 -0.0033858616 -0.0021452752 0.003675788 0.0016845792 0.003641614 0.0025186092 -0.003016967 0.0032124994 -0.0023739182 0.0020127024 -0.002528153 -0.00016170235 -0.00037416333 -0.002810823 0.0025679 -0.0010647823 -0.0031907267 0.0020399336 -0.002076818 -0.0035683243 0.0015911193 -2.7862541e-05 0.0018890059 -0.001570647 0.00023975046 -0.0036118566 -0.0014876861 0.00089269713 -0.0023285307 -0.0037723058 -0.0022119472 -0.0019401927 0.0029509668 0.0020359003 -0.002681322 0.00062668143 -0.0024537412 0.0032248818 0.0027027994 0.002436766 0.0008042279 -0.0001344165 -0.0007183678 0.0015347744 -0.00057414337 0.0016672232 -0.0016370559 0.0030619525 0.00046814888 0.0038291232 -0.0015822707 0.0003389205
14 9.151541e-05 -0.0025639422 0.0012577787 0.0006926962 -0.0012940884 -0.0027517404 -0.0025781651 -0.0029211722 -0.001044741 -0.0028029175 0.0006118067 0.0005080763 0.00020354 0.00025807638 -5.9638875e-05 -0.0031702933 -0.0012587251 1.1378933e-05 0.000927279 -0.0027959608 -0.0032826988 0.0016166341 0.0022367798 -0.0020636553 0.0024315647 -0.0013180309 0.0011139018 -0.0023792838 -0.001462836 -0.002022427 0.0020622334 0.0022212132 0.003179463 -0.00047344054 -0.00018996326 0.0037960084 -0.0015036669 -0.0038552848 0.0036421241 -0.00029935534 0.0028448345 -0.00361008 -0.00029930891 0.0037348077 0.001849122 0.00015906319 0.003242182 -0.0038930848 0.0035305761 -0.0015732534 0.003891488 -0.0003665339 -0.00066458614 0.0038572939 0.0027162426 -0.0029169463 -0.0024324912 -0.0018673729 0.0032336651 -0.002817593 0.0007413659 -0.0019129687 0.002231376 7.646421e-05 -0.0038218906 -0.0023288778 0.0029889138 -0.0013844267 -0.0010531629 0.0029073397 0.0018150992 -0.0005962309 0.0007722296 -0.003226182 -0.0025884036 -0.001535373 0.003550293 0.0005636701 0.0012183862 -0.002356798 -0.0014054402 0.0016178383 -0.0017005085 0.0026773915 -0.0038584934 -0.0026505266 0.0029605338 0.0015431851 -0.0011074095 -0.0036414098 0.00041166553 -0.0009688113 -0.0026056236 -0.00038083593 -0.00087953446 0.0036661169 0.003496104 0.0014867999 0.0037831673 -0.0020415867 -0.0007886348 -0.002736277 0.0022592589 0.0037050378 -0.0025004428 0.0021855761 0.0023149587 0.0030267308 0.001796736 -0.0038079654 0.0007290205 -0.0009198228 -0.0008921203 -0.002315325 0.00030715356 0.0032399008 -0.0030088506 0.0020696996 0.00038441896 -0.0038319314 0.00022234104 -0.003171963 -0.0019798921 0.0036080794 0.0015613284 0.0020569048 0.0025583033 0.0030219776
28 -0.000215154 -0.0037295043 -0.0032277626 -0.0011061959 0.001427653 -0.0031553113 0.0009805174 -0.0027579614 -0.0007826843 0.0023121024 -0.00033756645 -0.001587 0.0025780592 -0.0025373623 0.0019076323 0.0011660517 -0.0026344683 0.0032600497 -0.0016090182 0.0023251835 0.0035561023 -0.0036941702 0.0032611566 0.003285612 -0.001648856 -0.003000514 -0.001448197 0.0016782734 0.002722826 0.0007492062 -0.0027312022 -0.001908189 -0.0018754955 -0.002104867 -0.0032510057 -0.0013987066 -0.003253031 0.002500487 0.0012504492 -0.0011650365 -0.00049722666 -0.0030950683 0.0031293528 -0.0014457274 0.002576572 -0.00025645783 0.002871936 0.0015138934 0.00219183 0.0018237188 -0.0016750096 0.0017374896 -0.0022983807 0.0027153522 0.00087747775 0.0026012033 0.0037140236 -0.0033696303 -0.0037202223 -0.001213246 0.0035486277 0.0016336888 -0.0005169606 -0.0038002357 0.0027410411 -0.00022855042 0.0033522102 0.0021179128 0.002394075 -0.0020390942 -0.000978876 -0.002408701 0.0015862483 0.0034985489 0.0024619766 0.00365242 -0.0019698509 -0.0028268665 -0.0009281827 0.0005184699 0.0007757217 -0.000957605 0.0015181586 0.003295773 -0.0024464615 0.0012938841 -0.0012672894 0.0006804911 -0.0009419827 -0.000313556 0.0018360488 -0.0024378742 0.000466684 -0.0008690164 -0.0029185743 -0.0018794757 0.0016253165 -0.000446431 -0.0004375258 -0.0021043252 0.00051533355 -0.0012998414 0.00079102285 -0.0035866546 0.0015760477 0.0010247375 0.00041679453 0.00370911 -0.0029428375 0.00035663025 -0.0016277264 0.0002600231 -0.001707296 0.0010786697 0.0018510418 0.0013467551 -0.0028351261 -0.001495215 0.0032025499 -0.0034779415 0.0028894546 -0.0025459637 0.0020343384 -0.0002490245 0.002835422 0.0030211788 0.0007657929 -0.0013066067
6 0.0038229276 0.002324529 -0.0026487822 -0.0031703268 -0.0011524565 -0.0036140094 0.00015847631 0.0018453173 0.0017710323 0.0018416911 0.0015824479 0.0033965898 0.00232261 -0.00048172727 -0.0006908763 -0.0004300333 0.0006384725 0.0036308216 0.0037146795 0.001483683 0.0026096092 -0.0012092177 0.0011617895 0.0003893333 0.0026824404 0.0025066454 -0.0020637615 -0.00012604505 -0.0027981063 -0.0035565477 0.0031950471 -5.175625e-06 -0.001654912 -0.00084312924 -0.0028966854 -0.0034346024 0.0023051251 0.0029825333 -0.0003725716 -0.0004914223 -0.0006289583 0.0013775466 0.0028812787 0.0038522803 -0.0017791791 0.00029246794 0.0015398081 0.0019882096 -0.0036102247 -0.0007573414 0.00044277642 0.00020107308 -0.002804438 0.0037386932 0.0021301238 0.0017088848 0.00141403 -0.0011581717 -0.00041099032 0.00067775184 0.00096244004 -0.0007968402 0.00035812837 -0.00065956655 0.0038774586 0.0036024349 0.0027671074 0.003290977 -0.0021589927 -0.0022379113 0.00036950433 0.0032888527 -0.0016709863 0.0009386232 0.00092431623 0.0027004848 0.0027296753 0.0037530216 -0.0001133004 0.0017306315 -0.0021142813 -0.0025369462 0.0014648502 0.0009832246 -0.0014297587 -0.0021268653 0.0014950917 0.001090507 0.0010729684 0.0023438504 -0.003230484 0.0038814896 -0.0014672908 -0.003179582 0.0005070064 0.001697525 -0.0025394554 0.00055501005 0.0030798395 -0.0012671199 -0.00019250369 0.0028528504 -0.000339722 -9.122255e-05 -0.0031469709 -0.002410003 -0.000975919 -0.0020696018 0.0015048038 -0.00153063 0.0035074777 0.003148276 -0.00144323 -0.0011808512 -0.00214895 0.0036669548 0.0018028561 -0.0038319954 -0.0033570232 -0.0016663924 0.003307532 -0.0035579756 -0.0010966196 -0.0016992852 0.00034570167 0.00268519 -0.0001337178 -0.0016138803
9 0.00046157598 -0.0022058592 -0.002048318 -0.000586984 -0.00021942455 -0.0019341491 -0.0010458963 -0.0013857875 -0.0011249087 -0.0017412963 0.00078795454 0.003620315 0.0020740354 -0.0014131516 -0.001154539 -0.0013055316 0.0033786087 -0.0024001931 -0.0024504461 0.0017720485 -0.0038705904 -0.0007097041 0.00051227165 0.0012630436 0.0017074586 0.0022011516 0.00079818506 -0.002303169 -0.0011595982 -0.0022268265 0.0036781137 0.0010537591 0.0034145568 0.0024070872 0.003313509 -0.0038598725 0.003129085 -0.0015208209 0.00085801195 -0.001604135 -0.0009057503 -0.00054224 0.0015442589 0.0032460885 -0.0007452911 0.0030621418 0.0035240832 -0.0014255029 0.0011471498 0.00014851437 -0.0015798749 -0.00018302261 0.0017013241 0.0010546019 0.00320123 -0.002965309 -0.002446529 0.0017760393 -0.0014700509 -0.0031238408 -0.0006095539 0.0003015135 -0.00298292 0.00035055837 0.0026966827 0.0010734679 0.001079879 -0.00090272824 -0.0022534933 0.0015968338 0.0021942821 0.003322562 0.0038734947 -0.00027245865 -0.0031058507 -0.0032199495 -0.00019543458 0.0028427793 0.0023655086 0.0026401626 0.00021913859 0.0026051837 -0.0027023882 -0.0013760246 0.0028213288 -0.0009974764 -0.0023300436 -0.00284604 0.0006953496 0.0006084643 -0.00058642495 -0.0024310874 0.00083971093 0.0033655036 0.0034319342 0.0005983062 0.0013761051 -0.001110966 -0.0012037884 0.0031275249 0.0020993399 -0.0022657632 -0.0016490499 0.001930651 0.0001482205 0.0022304347 0.0014912399 0.00033065176 0.0029158772 0.00072175026 -0.003396678 -0.00014113149 0.002537809 0.0032498331 0.0007098681 -0.0036435314 0.00037853603 -0.0027012294 0.002167311 0.000793759 -0.0026376166 -0.0027449 0.0012506284 -0.002781728 0.0024513896 0.0022990247 0.00015524002 0.0038822945
7 0.00017506481 0.0017073979 0.0033224933 0.0028991771 0.00220297 0.0038602804 -0.0002695018 0.0003247031 -0.0015013632 0.000850857 -0.002458031 -0.00028091585 0.00142274 -0.0029373758 -0.0022840784 0.00051393284 0.0006048727 -0.0017363033 -0.0016507996 0.0001848482 0.0016535772 -0.0006944904 0.0019772921 -0.0021891645 -0.0019688774 -0.0013744439 0.00084978057 -0.0018722042 -0.0015598973 -0.0018259981 -0.0007103025 -0.003805549 -0.002940101 -0.0025360323 -0.0036296288 -0.001689137 -0.003784144 0.0029550418 -0.00017643184 -0.002720437 -0.0028406861 0.0022166774 0.0031616245 -0.00031369718 -0.0008236476 -0.003676212 0.0032561312 -0.0021380924 -0.0007885506 0.0015479518 -0.0002514905 -0.0027032464 -0.0034498677 0.0021171626 -0.0013802294 0.0022540602 0.0010328129 0.0020002518 0.003319482 8.140645e-07 0.0034835362 -0.0037032806 -0.0008777071 -0.0011836229 0.00035908818 0.0010255382 0.0011941615 0.0037265515 0.001288684 0.0016963753 -0.00097598904 -0.0022216851 -0.0015582235 -0.002381821 -0.0010795267 -0.0025836974 0.0006695337 0.0014257032 -0.0034526642 -0.0028753895 0.0024803712 0.0016463673 -0.00053591654 -0.0016778549 -0.003702742 0.0005151491 0.0038106989 -0.0025681262 -0.0024009258 -0.00071370986 0.0020158135 0.0034122707 -0.0027327817 -0.00057503855 0.0031114272 -0.003033143 0.0023641223 0.0012846607 -1.3161972e-06 -0.0005019488 -0.00043359306 -0.00038197322 0.00043311072 -0.0030327807 -0.0017607675 -0.0030882705 -0.0009885743 0.0036740198 0.002390993 0.0035470524 0.0023325968 -0.001372385 0.0022288722 0.00019855569 0.0012312694 0.003867259 -0.0021472524 -0.0024600977 0.0032045592 -0.0011628729 0.0007426908 -0.0032036556 4.028944e-05 -0.003279789 -0.0021046589 -0.003504394 -0.0013116796 0.00011921476
30 0.0038272901 0.002118421 0.001213904 -0.0021230292 0.0018355385 0.0036549002 -0.0011774449 -0.0031392395 0.0023747636 0.0031580972 -0.0010927633 0.0021482727 0.00076305156 0.0025991264 -0.0014309316 -6.8607646e-05 -0.0015359692 -0.0015440532 -0.0026973085 -0.0034675521 -0.002993502 0.0006013917 0.0018848601 -0.0009866783 -0.0037517892 0.002792824 -0.0005946427 -0.00043917698 0.001203831 0.003278172 0.0009287749 -0.0011575228 -0.003137241 -0.0015981642 -0.0021340472 -0.0019035358 0.0005952221 0.002973913 0.002853094 -0.00072431494 0.0037213939 -0.001854779 0.00092823163 0.0020174256 0.0017153337 -0.0027340788 -0.0017585016 -0.0036368303 -0.0015955172 -0.003253723 0.00337929 0.0005396007 -0.0034982273 0.0010937464 -0.00048475244 0.0024636867 0.002303479 -0.0012904889 0.0015375968 -0.0014484314 -0.0034261753 -0.00021974144 -0.003729316 -0.0011633491 0.0027597907 -0.002075366 -0.0036627285 0.0005809113 0.0037225331 -0.0037801322 0.00069197285 0.0029960847 0.00089931453 0.0031951251 -0.0036081113 -0.0034356788 0.00040939052 0.00370171 -0.0007435071 -0.0016343171 -0.0012663117 0.0018779683 -0.0036154143 0.0008868326 -0.0014078117 -0.0025983858 0.000117534204 0.00020539631 -0.0029213205 0.0027547195 0.0010164273 0.0018892406 -0.0009989558 0.00017326207 0.00046288653 0.0018566254 0.0028320055 -0.0025568753 0.0016573437 -0.0021047238 0.0017787771 0.0011186269 -0.00070601044 -0.003235768 -0.00022177781 -0.0005190081 0.0029681255 0.0019261243 0.00075976405 -0.0026248214 0.002746428 -0.0015596116 -0.003521788 -0.0022808749 0.0007325368 -0.0027701694 -0.00080562476 -0.0018996292 -0.0009242667 -0.0035565908 0.0032753595 0.0010275099 4.9189774e-05 0.00092116377 0.0018418784 0.001420006 0.0006907553 0.002398297
8 0.0003650535 0.0025831608 0.0019441788 0.0036798792 -0.0003935247 -0.0022596796 0.002556252 -0.0028391755 0.00068703544 -0.0005149796 0.0021790632 -0.0006201043 0.0025470343 -0.0036632232 0.0026900407 0.002955088 0.0008615812 0.0034154612 -0.0010916005 0.0018200354 0.000360316 -0.0016746739 0.0016842287 0.0025233214 -0.0025011804 -0.0016035121 0.0015030599 0.0016543075 0.0021445586 0.0029889427 -0.001841803 0.0016993347 -0.0035639575 -0.0019058425 0.0018040251 0.0029257734 -0.001180755 -0.00054384477 0.0038208577 0.00088200864 0.0010649503 0.0035633827 -0.00024929454 -0.0034539395 -0.0021675366 0.0036969408 -0.002760027 -0.0010897289 0.0026863639 -0.0016634569 0.0037631504 0.00023238662 -0.00014056009 0.0024847812 -0.0010772541 0.0019024594 -0.0011099881 0.0027456256 -0.0017464356 -0.001318118 -0.001097192 -0.0010328165 0.003245145 -0.0033088033 -0.00278902 0.0022684978 0.0024312867 -0.0023857793 0.0032051632 -5.9630984e-05 -0.0009390147 -0.0013167246 0.0031954756 -0.0021800017 -0.0018288096 0.00068557257 -0.0008554696 0.00016348563 -2.8770246e-05 0.0029689716 -0.0030256128 -0.0009556082 -0.000646018 -0.0004045661 -0.0032345296 0.0015296523 0.0013263301 -0.0006531264 0.0023362348 0.0019003625 -0.002954801 -4.4552646e-05 0.00033138183 -0.00064145343 -0.0010183353 -0.0015505322 -0.0029767195 0.0030069822 0.00038227974 0.0013007056 -0.0004577479 0.0013136257 -0.00012046378 0.0027594296 0.0013286746 -0.00303713 -0.00331786 -0.0036245321 -0.0007470897 0.0012066902 0.0008036262 -0.0022142406 0.000484074 -0.00017951347 0.0013085405 0.0009358004 -0.00017392627 0.0025034684 0.001931144 -0.00264846 0.0013599981 -0.000683701 -0.0035231742 -0.0011355035 -0.0004959494 0.002976393 -0.0034319167 -0.00056398974
25 -0.0036039539 0.0025065895 0.0025848045 -0.0005167618 -0.0028490953 0.0038387896 0.003542998 -0.0015399731 -0.0008995688 0.0037700455 0.0012997284 -0.0030942645 -0.00022783599 0.0015563262 -0.00036707977 -0.0017712341 -0.0033112823 0.0007698728 0.0006792299 0.0035402218 -0.001319048 0.0030724711 -0.0033944852 -0.0016097715 0.002714851 0.00089581043 -0.0023952066 0.001617802 -0.002387983 -0.0026808502 -0.0007574537 0.0034149855 -0.00034789805 0.00036815554 -0.002460761 0.0032430508 -0.0017604651 0.002199961 0.0022974182 -0.00095193496 -0.0016318478 -0.00151972 0.00014564989 -0.0016388994 0.003708874 0.0027104488 0.002082604 -0.0008096697 -0.00014020779 0.0027205932 -0.0018037746 -0.0010727916 -0.0015386565 -0.0021685008 0.0020646502 0.0021980251 -0.0006624289 0.0013580052 0.0014065033 0.0029765032 -0.003339594 -0.001846018 0.0005958458 -0.00031467303 0.0026173627 0.0037036408 0.000110484216 0.00096808723 -0.0024990113 -0.0010238132 0.0038786351 0.0018715707 -0.0036575685 -0.0025951208 -0.0020664074 0.0020558971 0.00076739915 0.0036652163 0.0014064595 0.002961202 0.001825604 0.00029672278 0.0029961844 0.0029881038 0.001658554 0.0009178607 0.0030743896 0.0015587575 0.0032800147 -0.0007796079 -0.0034566715 0.0022083418 0.0014707827 0.00090617046 -0.000494068 -0.001817152 0.0005592659 0.00053404534 -0.0011732121 0.003691744 -0.0029690568 0.002642488 0.0016835672 0.0025943893 -0.0035498028 0.0007716363 -0.003496169 0.00332011 -0.00351967 0.0033042105 0.003252069 0.002775478 0.0029007837 -0.0026950624 0.0024795262 0.0018592102 -0.0024740917 -0.0003427343 0.003706868 0.0011296427 0.0013286265 0.002822074 -0.003286122 0.00014498187 0.0012148728 0.0029095055 0.0012943596 0.0017821878
26 -0.0034657686 0.0020228773 -0.0006408397 0.0032065038 -0.0012860443 0.00085782434 0.0030988054 -0.0023786481 0.0037272172 -0.0035001582 -0.0018701467 0.00079697353 0.0022596775 -0.0016476024 -0.0012319322 0.0019520199 0.000899297 0.0026081319 0.00237827 -0.003092853 -0.0026409822 -0.0036836737 -0.0011634172 0.0024703916 0.00034904527 0.0029156362 -0.00019386667 0.0007620256 0.0019404937 0.0003386547 0.0037064215 -0.0030948075 0.0027679366 -0.002548687 0.001959491 0.0025970167 -5.62238e-06 -0.00226715 0.0010649213 2.2131191e-05 -0.0016247195 0.0029865974 0.002624477 -0.0032154813 0.0025385476 -0.0032644912 -0.0009037561 -0.0032918858 -0.0030234861 0.0028871505 -0.0024831349 0.0021489253 -0.0016238542 -2.3331728e-05 0.0012628569 -0.0006943972 0.0015589737 0.0011863116 -0.0006477655 -0.0032726484 -0.00024185421 -0.00038767833 0.00040521464 -0.00045546915 -0.0025267755 0.0005356767 0.0012034789 0.00072513404 -0.00045918868 0.0038563127 0.0021006945 0.0006099561 0.002579666 0.0015984002 -0.0030844132 -0.00086560793 -0.003647383 0.0025485903 0.0017085109 -0.0022007115 0.00070870016 -0.0025933105 0.0022126962 0.0015825102 0.0038526084 -0.0038625041 -0.0024690877 -0.002877731 -0.002520079 -0.0018262116 -0.00020458979 0.000607007 -0.0015132243 0.002994811 0.0036551591 0.0007039412 -0.0016229776 0.0028094691 0.0015853442 -0.003887473 0.00055088307 0.003579305 -0.0027268205 -0.0013484268 -0.0003011499 0.0027290927 0.002523774 0.0018039943 -0.0006639909 -0.001443667 0.0037419526 0.0010365957 0.0022771128 -0.00070233684 -0.0027982758 -0.0019528472 0.0029395132 0.0016597637 4.9860275e-05 0.00077483995 0.0021166967 -0.003737211 0.0035837232 0.0037163063 -0.00209811 -0.00072944874 0.00027768718 0.0020041198
29 -0.0010351166 -0.00028663513 0.0034098837 -0.00059574435 -0.0010145198 -0.0010340405 -0.0013082128 0.00084130623 0.003508254 -0.0030622198 0.0033565315 -0.0018026037 -0.002848184 0.0020414465 0.0021181093 -0.0018129337 -0.0036767141 1.8162878e-05 -0.0029786134 -0.0032169728 -0.0014852391 0.0006830148 -0.00034766554 0.0028369334 -0.00013257872 0.00035853783 -0.00053352787 0.0005397082 0.0038199185 -0.002854329 -0.0028127704 -0.0012998694 0.0011064017 -0.0027566652 0.0035708991 0.0017712375 0.0016875603 0.0034258948 -0.0032687935 -0.0028287114 0.002228831 -0.0025470625 -0.0036744124 -0.00010471014 0.0006482316 0.0011237863 0.0023183594 0.0008816997 0.0016755275 -0.0010670148 -0.0016324451 0.0015476813 0.0005573424 -0.002300104 -0.0034296268 -0.0008947341 0.0018849478 -0.0031393026 0.0026730795 0.00116595 0.0007558084 -0.0018343586 0.0005681607 -0.0028379431 0.002909958 0.00091929774 0.0006249892 -0.0023869653 0.0023154244 -0.0036542413 -0.0014916563 0.0037858512 -0.00162557 -0.0014787792 -0.0033476586 0.0008269882 -0.0018083447 -0.003292141 -0.0017064227 -0.00054730725 -0.0013797141 0.001724119 0.002210478 0.002421096 0.0021423767 0.0006339315 0.0012817428 0.001765628 0.0028524445 -0.00030609992 0.0039025967 -0.0028959452 -0.0004512301 -0.0016629928 0.0021739579 -0.00014714646 -0.0006225798 0.0017420556 0.0014403304 0.002540603 0.0029869697 -0.0014081771 -0.0003567829 0.0031901293 -0.0027880128 -0.0010459757 -0.002946885 -0.0002314717 -0.00030388965 -0.00046563573 0.0032187072 -0.0008659562 0.0033884083 -0.00060276396 -0.002124361 0.003498804 -0.00029504744 0.0028576003 0.0003538167 0.0014206374 0.0018067431 -0.0008564443 -0.0012401666 0.0019956075 0.0027335412 -0.0032314197 0.0032309764 -0.0019883057
31 0.002222506 -0.0033129842 -0.0013643032 -0.002093104 0.000567741 -0.0024448293 0.0016346208 0.0014772472 -0.0005233676 -0.000618017 0.0020030062 -0.003651345 -1.7461252e-05 -0.0020087098 0.00020478966 -0.0022677165 -0.0004060773 0.0018600113 -0.00097510335 0.0034871383 -0.001656707 0.0033591415 -0.0016689168 0.0020271314 -0.0027035794 -0.0011832857 0.000108861925 0.0017746171 -0.0035892203 -0.00043877022 0.0038282955 -0.0028164377 -0.0023138032 0.002683916 0.00041286394 3.811314e-05 0.0031178724 0.00039667706 0.0018519168 0.0012601428 0.0027306553 -0.00063894724 0.0011469824 0.0019917486 0.0011510154 -0.0033587818 -0.0035342376 0.0013481514 0.0007286607 -0.00045890018 -0.0017825607 -0.000976371 -0.0008572254 -1.2140099e-05 0.0037155421 -0.0010601378 -0.0027768295 0.00022853399 -0.0030857648 0.002292362 -0.00035841268 0.0028465039 -0.0020276513 -0.00052078883 0.0032221635 -0.0021133139 -0.0017266851 -0.00168692 0.0018600632 0.0013507158 -0.002062713 -0.003352119 -0.003049284 0.0005227604 -0.00043070957 0.0009943909 0.003070511 0.0009371324 -0.0038452568 -0.0026718196 0.0007502516 -0.0025153658 -0.0034682476 -0.0013603481 0.002666728 -0.0033288242 -0.00066347816 0.00028989208 0.00090248557 -0.0023234596 -0.0016200208 0.0031935114 -0.0028737322 0.0032848618 0.002894651 0.0031963456 0.001892701 -0.0034704905 0.002926906 0.0006706363 0.0017269944 0.00334258 -0.0017623705 0.0011124004 -0.00012661844 -0.0027035386 -0.00016211264 -0.0023852766 0.0006577469 0.0017014093 0.0023230799 0.0014755495 -0.0038371056 0.0009232221 -0.0035356774 0.0034007311 0.00014980281 -0.0002911337 -0.0013921187 0.0031209763 0.003299417 0.0038101622 0.0031501066 -0.000806705 0.00083845557 0.00017843499 0.0029288244 0.0035200145
20 0.0035546664 -0.003000495 0.0029200136 -0.0015174664 0.0030368958 -0.0030951065 2.1497956e-06 0.0035601938 0.0018853637 0.0028120843 -0.0021155344 -0.00083412515 0.0025220755 -0.0031375512 0.0021977357 -0.0018390242 -3.5503665e-05 0.0008689387 0.00045205085 0.0009248845 -0.0025876262 -0.0007414291 0.003670198 0.0012859057 -0.001003252 -0.0009671861 0.00062781194 0.0025523878 -0.0007308888 -0.0029735253 0.0013801631 0.0037864782 -0.0033800898 -0.00024340357 -0.003089472 -0.0007467583 -0.0012336617 0.0020263172 -0.003399264 -0.0023050355 0.00074660993 0.0026629681 0.00016582888 -0.0007248935 0.0024390265 0.003555297 0.00015753743 -0.0026960669 0.00093440455 0.0015486878 0.0038960448 0.0025003005 0.0011244197 -0.003118859 -0.0034640513 -0.0012501602 0.0018251785 -0.00038776486 -0.003454534 0.0012902473 0.000690854 -0.0016748486 0.0032523314 -0.0015244341 0.00163907 0.0038702383 0.0014127356 -0.0032296048 0.0024197642 0.00091672165 -0.0023460062 -0.0017433696 0.0029320277 -0.000636873 -0.0007424778 0.0035912665 0.0015330799 -0.0018144725 0.0025464299 -0.0022883045 0.0038952224 -0.0033695428 -0.0030384725 -9.610143e-05 0.0025542625 -0.00017251106 -0.0002470937 0.0021476434 0.001453338 8.97778e-05 0.0007598065 0.0011809478 -0.0017544684 -0.0034659104 -0.0036337387 0.0006858662 -0.00026721734 0.0016635994 -0.0035008737 -0.0010662158 -0.00293007 0.0022044333 0.001402956 -0.0001985919 -0.0032061897 0.002550579 0.00031162254 0.00042276143 -0.0037421186 -0.002696049 0.0016175414 0.0026507436 -0.0018099981 -0.0025231761 -0.0023887465 0.0034125345 -0.00023803889 -0.0029027662 0.0016698209 -0.0024181586 -0.0017292871 0.0027207846 -0.0017865234 -0.00072674913 0.0015940745 0.0038783047 0.001368599 0.0025979788
11 0.00103829 -0.002009305 -6.6247114e-05 0.0016368905 -0.0014056931 0.0003033749 0.0032875692 0.003196919 -0.0012119462 0.0025037338 0.0010778216 -0.0024628874 0.0028029038 -0.0028405604 0.00028792853 0.0016202979 -0.0007870241 -0.001463038 -4.4602304e-05 0.00033754844 0.0019109148 0.0034009635 -0.0035253607 -0.0015494 0.0014806212 0.0033933092 -0.0035871014 0.0020674758 -0.0019719996 -0.0028566956 0.0013325667 0.0024476047 0.0006801537 -0.0022584659 0.0031713212 -0.0035490566 0.003684731 0.0030958725 0.0013974281 0.0011179522 0.00030365147 -0.00051813136 -0.00042455926 0.0012036359 0.0009905874 0.0032194988 0.00071188336 -0.0008268314 0.0005609367 0.00060863263 0.0033938778 0.00046086166 -0.0016650775 0.0003842351 0.00085940666 0.003351111 -0.0018203342 0.0019005969 -0.0009084728 0.0038993722 0.0037646594 -0.0019074006 0.0034162726 -0.0029323525 -0.0017141268 0.0016967483 -0.0036694494 -0.0037742269 -0.0036362885 0.0015121229 0.00071903295 -0.0019406435 0.0023893672 0.0032151097 0.0015611044 -0.0012111232 -0.0007860324 0.0024850422 -0.00063256593 0.00035458864 0.0012495796 0.0014048074 -9.812587e-06 -0.002358407 0.0020230026 -0.0031394474 -0.00074274506 0.0037379363 0.0012873518 -0.0015453214 0.0034436071 0.0007033768 -0.001693687 -0.0003859471 -0.00048944895 0.0020975675 0.002495541 0.00084151374 -0.00011026053 -0.0035601945 -0.0016928769 -0.0026693824 0.00075146515 -0.0012042738 -0.0015191493 -0.0021071737 -0.001525043 0.00077953405 -0.0030875863 0.0034183152 -0.0017671869 -0.0032388095 -0.0019958522 -0.0015838142 -0.0021916567 -0.0016930299 0.0023599262 0.0014338592 0.0038002504 0.00047291088 -0.002655972 0.0016190263 -0.0022833662 0.0009986563 0.0020856792 -0.0034742232 0.0020241344 -0.0033531035
5 0.0025917406 -0.0009673764 -0.00060034933 -0.0028380728 -0.0038273593 0.0005317491 -0.0014913138 -0.0030908394 -0.0020067976 0.0032141765 -0.003748313 -0.002789059 0.0037583206 -0.00037508988 0.002826908 -0.00012396339 0.0019138318 -0.0037383072 -0.0033452723 -0.003904177 -0.00035952652 -0.003425233 -0.0029959313 -0.0035987578 -8.3082086e-05 -0.0028710652 0.0017760635 0.0024897452 -0.00013990648 -0.00088491914 -0.0029158173 -0.003175618 -0.0032365029 0.0037362692 0.0028652437 0.0036818788 0.0029301345 -0.0021119493 -0.0037209883 0.0030522516 0.0032844984 0.0013649144 -0.0015967801 -0.0008846167 -0.0020125574 -0.00034587935 -0.0011198805 -0.002189695 -0.0037399777 -0.00175037 -0.0005002794 0.00254493 0.0017519637 -0.0023136828 0.0032684195 0.003505299 0.0026017379 -0.0036553903 -0.00014006878 -0.00017611479 -0.0027422411 -0.0010341513 0.003317335 -0.002366219 -0.0035805313 0.0015669583 -0.0010910522 -0.001811035 -0.002865722 -0.0017333805 -0.00015993451 -0.0023413913 0.0027647442 0.00129203 0.003016212 0.0037244507 0.0009074006 0.0026092269 -0.0032908083 -0.0025281047 -0.0021280518 0.0014485982 -0.003810588 -0.0023439822 0.0018320951 0.0012155637 0.0016383576 0.0035241817 0.0013924701 -0.0016699965 0.0015200471 -0.00016706967 0.0034146747 0.003522434 -0.00038108244 0.0038586129 0.0005296429 0.0008279231 -0.0032159314 -0.0019479236 -0.0022860256 -0.00046239785 0.0014061771 -0.00021218286 0.0005741941 0.002503029 0.0012523335 0.0012279414 0.00055428344 0.0018142384 -0.0025698375 -0.00036219874 0.003853248 0.00107758 -0.0032660998 -0.00016304106 -0.0011151008 0.0033329136 -0.0035869838 0.000118127326 -0.003406003 -0.00016171673 -0.0021102466 0.0022895585 -0.00015706616 0.00088552036 -0.0016584016 0.0010047304
17 -0.0018019152 -0.0009414523 -0.0033296181 -0.0014381189 -0.0031459862 0.003616287 0.00031350562 -0.0022094043 0.0029883138 -0.00065048476 0.0014307734 -0.00038895034 -0.0018507409 -0.0025295492 -0.0017511145 -0.0021065401 -0.00266432 0.0007549403 0.0012682778 0.003365825 0.00020965181 -0.0018740643 0.0034324222 0.002061795 -0.0019673924 -0.001586852 -0.003329757 0.002937962 -0.00091279804 -0.0030620974 0.0026281017 0.0005992569 -0.0015650043 -0.0022923176 -0.00018325735 0.0033362692 0.0013341724 -0.0027325754 0.0029219503 -0.00017238759 -0.00038481707 0.00042051068 -0.002865377 -0.0020027473 0.0033071751 -4.2428754e-05 -0.00085100223 0.001413951 0.0009969618 0.0022380329 -0.003351941 -0.0038398614 -7.042017e-05 -0.00092277117 0.0015814684 0.0036909531 0.0015879276 0.0036673513 -0.0017665788 0.0008335676 0.0017527177 -0.0015424575 -0.001559542 0.0039012008 -0.0016502199 0.0038540424 -0.0027839392 -0.0037651137 -0.0024021103 -0.002522159 0.003022992 -0.0028087534 -0.0031856778 0.002094705 -0.0010014795 -0.0006757585 0.0011096477 0.0038424334 -0.0013304265 1.7902391e-06 -0.0010373014 0.0010833362 0.0033727824 -0.0013678425 0.0028595896 -0.0028483993 0.0021050407 0.0028561386 0.0038785602 0.0005616355 0.0026665824 0.0017696768 0.001843473 0.0009124377 -0.0033262903 0.0031587095 0.0018505987 -0.0038008606 -0.0035254846 0.0015886902 -0.0005929789 0.0020884948 -0.003136591 0.003348993 0.00089004776 0.0006203968 0.0023568245 -0.0025805142 0.002786038 0.002324516 0.003745937 0.0030135396 -0.0009318634 0.0030277004 0.003690246 0.00065910915 -0.0015330466 -0.0021110761 -0.0009446594 -0.0018134309 -0.001995809 0.0011498336 -0.002658462 -0.0027916767 0.00015173304 0.00011237682 -0.002928381 -0.0022835643
19 -0.0008475148 0.00031324115 -0.0034437825 0.00075895904 2.8066372e-05 0.0014832845 -0.0004615773 -0.0038696923 -0.00084090634 0.003488099 -0.0023981736 -0.0015279561 -0.002397109 -0.00030944915 0.001303443 0.0011310757 -0.0006616133 0.0004881906 0.0036580455 -0.0018849423 0.003642561 -0.0008793858 -0.0012531121 0.0007879949 -0.00057592615 0.0017152147 -0.0036173211 -0.0029973076 -0.0031558739 0.003086692 0.0010807471 -0.0025168322 -0.001333314 0.0016708794 0.0007994469 -0.00271732 -0.0011890033 -0.0034323302 0.002944143 -0.0023201613 -0.00087509694 -0.0018806951 -0.0013195548 0.0038732397 -0.0010130015 9.515273e-05 -0.0032696405 -0.00052484527 -0.0013943599 0.0014160719 -0.001223412 -0.002982975 0.003153327 0.0038003868 -0.0006556426 0.0021412482 -0.0019245867 0.003042361 0.0030391752 -0.0023774658 -0.003096618 -0.001404697 -1.5038547e-06 -0.0021042074 0.002196533 0.00048532835 -0.0010314024 0.00054091547 0.0016370818 0.0032966167 0.0028108943 -0.0035604306 0.002766786 -0.0024307666 0.001560507 -0.0031802356 0.0025885066 0.0014706409 -0.0014843218 -0.0012612133 -0.0020219118 0.0021181253 0.0031645556 0.0011076932 -0.00029697485 0.0036740084 -0.0025779696 0.0007246595 -0.003373237 -0.00268911 -0.0003458454 0.0012433435 -0.000628672 -0.0019455423 0.0023042979 -0.0038317076 0.0037225208 0.00057858805 0.00022688817 -0.0027205416 0.0030625693 -0.00087157823 0.0002247273 -0.0019681102 0.0036515635 0.003124518 -0.0035680719 0.0011007058 -0.0029380978 0.0021253643 0.0027214147 0.0028266585 0.0034390618 0.0013888649 0.0016691611 0.00035358893 0.0024507032 0.002906843 -0.0019535874 0.0020969508 -0.0037848398 -0.002099477 -0.0009979274 -0.00070854375 0.0032957008 -0.00208205 -0.003071247 -0.001696723
13 -0.0009884171 -0.00025873457 -0.0010384833 0.00017053648 5.2523035e-05 -0.0001234534 -0.0009973316 -0.0023188926 0.0016665822 0.0018908912 -0.0002457371 6.4456624e-05 -0.0032331292 0.0021236811 -0.003030823 -0.00313741 0.0021871023 0.0033497338 0.00043384818 0.00375895 1.0217412e-05 0.00062035176 0.0007442633 0.0010500276 -0.0012266209 0.002515667 0.0021019059 0.0026206526 0.0022702531 0.0033160776 0.003272191 0.0029873715 0.00019496931 -0.0032759563 0.00024421175 0.0016470506 0.000416731 -0.0004893111 -0.0038872755 0.0005905961 -0.0030225655 0.0037699575 8.093548e-05 0.0015623792 -0.0033245713 0.0013397989 0.0036317587 -0.0027986148 -0.00082564953 -0.002975129 0.0017513745 0.00026139547 0.00036733694 0.002424637 -0.0023089082 -0.0037636738 -0.00035678217 0.0018497324 -0.0025602377 0.00033917898 -0.0038221667 -0.0015238118 0.0011946344 0.00034420303 -0.00065014476 -0.002783951 -0.0013674638 0.0011610652 0.0032358486 -0.0033922095 0.0030172386 0.0032521726 -0.0023074637 -0.001890316 -0.00083965255 -0.0031160603 0.002154372 0.00011879425 0.0014397874 -0.00043020022 -0.0020458545 -0.0013238919 -0.0023709976 -0.0017755723 0.0019323219 -0.0039014828 -0.00029559757 -0.0028983857 0.0013481107 -0.0035606108 0.0035797397 0.002100581 0.0038802295 -0.00064120686 -0.0028305117 -0.0021220169 0.00039081948 -0.0015144926 -0.0012525682 0.0015341949 -0.0032454585 -0.0007223913 -0.0027932776 0.0002880339 0.0003127565 8.2288076e-05 -0.0027794205 0.0005300956 0.0013085607 0.0014284365 -0.0031354306 -0.0022030883 -0.0034360453 0.0011326758 -0.001877639 -0.0014300914 0.002987563 -0.0036105919 0.0025641134 0.0031217553 0.0031686837 0.0012562865 0.0016414634 0.00081745454 0.0002894219 -0.00381983 -0.0021673972 0.0019077822
15 0.002053103 0.0030357563 -5.4282897e-05 -0.0038546098 -0.0030446546 0.002088813 0.00067178166 0.003313628 0.00038273417 -0.0022631416 0.0022766844 1.5603697e-05 -0.0009034689 0.0025456464 -0.0037172441 0.0005885612 -0.00053656526 0.001674114 0.00087699114 -0.0015854279 -0.0005728877 0.0028336695 0.0028841314 -0.0031465024 -0.0038440365 -0.0033981742 0.0029161118 -0.0025303464 -0.0036537112 -0.0018782491 -0.0012613379 -0.0006534918 -0.0006068449 0.0025486052 -0.0006931615 0.00088534545 -0.0018035271 0.002922141 0.0015040309 0.000967466 0.0005680489 -0.0003805768 -0.001233574 -0.00069577113 -0.00149257 -0.0020747848 0.0027165837 0.0016240044 -0.001957955 0.002925639 0.0026714364 -0.0019283278 -0.0019784186 -0.0030767773 0.0012189132 0.0013886589 0.0020142633 -0.002995206 -0.0032546348 0.0021693334 0.0014020429 0.00044277168 0.0001502402 -0.0032151279 0.00092588796 0.0025237517 -0.0028880232 -7.924051e-05 -0.003209173 0.0005425547 0.002238639 0.0009966879 -0.0019097914 -0.0030544957 0.0014920678 0.000121486686 0.0035823318 0.00037649454 -0.0018922234 -0.0012985826 -0.0010418246 0.000335565 -0.001011391 -0.0017709201 0.0012562216 0.0016756486 5.1813946e-05 0.0033603685 0.0002882297 -0.0011127888 -0.0019850128 -0.0038210687 0.0005567756 0.0020871104 -0.00059355143 -0.0018718775 -0.00034904605 -0.0035799826 0.0012211824 -0.0031562797 0.001444191 0.0010713361 0.0037157866 0.0034140935 -0.0004434956 -0.0015930812 -0.0013527736 0.001721991 0.00082303595 -0.0019115285 0.00049031014 0.0016972676 0.0022999512 -0.0032462243 -0.002970569 -0.0001353194 0.0031565838 -0.0010731929 -0.0022739933 0.0009930582 0.0013216835 -0.00133061 -0.0033707041 -0.00076605275 3.2662072e-05 0.00053247565 0.0023980814 0.003656712
27 0.00013757468 -0.0022840644 0.0004118722 0.0017915729 0.00094553985 0.0038402537 0.0011766857 0.0018875713 0.001288903 -0.0010786722 -0.002035993 0.0010799869 -0.0011619007 0.003291422 0.00045106187 -0.00043508978 0.0029000884 0.0027670134 0.0006896231 0.00045193915 0.003226224 -0.0015599638 0.0036223927 -0.0025422943 -0.00091032655 -0.0021828003 0.0027710104 -0.0016316486 -0.0021033806 0.002846285 -0.00040132977 0.003384534 0.0033301618 0.00067895354 -0.003535649 -0.003270038 -0.0017359377 -0.0028588467 0.0018902466 0.003294976 -0.0018811853 0.0032381418 0.0007937959 5.9401038e-05 -0.0003186201 0.00012206213 -0.0018445625 0.003286753 0.0037700343 0.002540242 -0.00052196893 0.0012829981 0.0030104085 0.002983838 -0.0025572686 0.0025284463 -0.0013363317 0.0024654756 -0.00013796541 -0.0019981086 0.0020769062 -0.0019307252 0.0031132458 0.0028896898 0.0023694409 -0.00042002255 -0.0018577181 0.0037289723 -0.0006732302 0.00039426063 -0.0020906643 0.00041525706 0.0013928539 0.003260257 -0.000610268 -0.002794876 -0.00068954704 0.0014584635 0.0003854869 0.0011619915 -0.002395423 -0.0013043422 -0.00027477724 0.003121216 -0.0036673932 -0.00087174226 -0.0031080819 0.0034321074 0.0013801709 -0.0028869873 0.002567036 -0.0028387187 -0.00050532084 8.062277e-05 -0.00041659307 -0.0025863703 -0.0036510762 0.002719232 0.0018786999 -0.0014903746 -0.0026427438 -0.0002467877 0.0028560432 0.0018348653 -0.0036171267 0.0005293919 -0.0013699244 0.0014902463 0.0020113983 -0.0017744562 0.0001116197 -0.0005693189 -0.0014410483 0.0030117761 -0.0002304693 -0.0025329825 0.0034360741 0.0028212622 -0.0036688284 -2.7757873e-05 0.0010879482 0.0023116209 0.0015821679 0.0026285371 -0.0018174615 0.0009877766 -0.00228094 -0.0027518123
23 -0.0010140017 -0.0009912421 -0.0014868794 0.0013114418 0.0020475725 0.00030289945 8.736591e-05 -0.000101504134 -0.0012863851 0.0034291884 0.0029994636 0.0037475936 -3.220324e-05 -0.0014053803 -0.00089372 -0.0038778158 0.0007808354 -0.0005356181 -0.0018609128 0.0017461954 -0.0028793232 -0.00024981514 0.0010496203 0.0032447474 -0.0005503774 0.0030993773 0.00054492016 -0.0015868773 0.0032390368 0.0034846007 -0.0017690143 -0.00333989 -0.000250163 -0.0011906355 0.002373827 0.0011750269 0.0033277408 0.0016487719 0.0023263218 0.0033327953 -0.00022034002 -0.00083450135 -0.003308118 0.0012670308 0.0015710563 -0.0036392706 -0.0033946387 0.003784477 0.0023431615 0.0005923098 0.0016219366 0.0035028874 -0.00038237084 -0.003346264 -0.0010281348 -0.0025335392 -0.0015017439 -0.0016017797 0.003075066 0.00063692074 0.0006809247 -0.0019164428 0.00035697903 0.0026902992 -0.0020143737 0.0034036965 -0.0034949258 -0.00051071844 0.0010560305 -0.0029931834 0.0021343385 -0.0020363983 -0.0036644104 0.0005925664 -0.0026300512 -0.003158778 0.0019920515 -0.00022548772 -0.002477969 0.002436144 0.00089487125 0.0029296933 -0.002888334 -0.00055592484 -0.0033007476 0.0004444998 0.0029879746 0.0031273288 -0.0025544146 -0.0019095283 -0.0017850529 0.002526402 0.0025713854 0.0019092183 0.0007268776 0.0012750014 -3.9480226e-05 0.0022522465 -0.0019792716 0.0027958995 -0.00097307726 -0.0033512104 -0.0018643696 2.8214887e-05 0.0003295727 1.990041e-05 -0.003002852 0.0024352113 0.0020883053 0.00286989 -0.00019956875 0.003741544 0.0027515504 0.0005576562 0.0036666833 0.0029417682 0.0027922045 0.0001645812 0.00046998367 0.0019645833 0.0011846779 -0.0027538766 0.00068060873 -0.0029897683 0.0016321386 0.00043561088 0.00063138583 -0.0022096874
16 0.00011454724 -0.0023738646 -0.0021331927 -0.0029679253 -0.0028459285 0.0018835636 -0.0016404581 0.0035441895 -0.003368768 0.00065039156 0.0013668883 0.0036520418 0.0030934236 -0.0019552172 0.0013336951 -0.0028566148 -0.0019097249 -4.2213647e-05 0.00038417653 0.0024052602 0.00035992678 0.0030082741 -0.0010929543 0.003166551 0.0027468335 -0.00086211355 0.000860837 0.0038068476 0.002173042 0.000168153 -0.003838158 -0.0036291687 0.0037689037 -0.0029943986 -0.003043799 0.0036973138 -0.0017292402 0.00095779466 -0.003237354 0.00023004874 0.0010934173 0.000626138 0.0007059795 0.0018529141 -0.0010331933 0.003031825 -0.0013818778 0.0012290231 -0.0034275434 1.6223537e-07 -0.0037327225 -0.0022612123 0.0030593828 0.0010406694 -0.0010069939 0.0022410688 -2.194052e-06 -0.0024843747 -0.0019393492 -0.0014484869 -0.00073815207 -0.0036551272 -0.002511379 -0.00045360217 -0.0023861646 -0.0026338247 0.00020515973 0.0022413472 0.0013226621 -0.0017732457 -0.0035823013 0.00035969072 -0.0038464842 -0.0018749391 0.00041481986 0.0026189 0.0036377402 -0.0010381124 -0.0010848648 -0.0037678774 0.0021271703 -0.00151332 0.0017626132 0.0022718275 -0.0009952146 -0.0018266146 0.003315338 -0.0021440284 -0.0014029379 0.0033544733 0.00260924 -0.000550042 -0.0009142963 0.0039045305 0.0036305424 0.0016206693 0.0038251383 -0.0023331242 -0.0033020223 0.00021280265 0.0007730084 -0.0007041239 0.0012416856 -0.0020437727 0.0034346473 0.00086800114 0.0028528871 0.0030191864 0.00068960944 -0.00022714611 -0.00026570132 -0.0016329912 0.00010267688 0.0029948396 -0.0032961604 0.0004008319 0.0013471971 -0.0017071669 -0.002337955 -0.00012979578 0.0017868533 0.0005167002 0.00303311 0.0038276399 0.0024601996 -0.0020275766 0.0018066594 -0.0029161111
21 -0.0034510288 0.003189574 -0.0015581038 0.0003803973 -0.002969163 0.0037806768 -0.0018456038 -0.0022753614 -0.002464465 -0.0010219773 -0.0007836196 -0.00075577595 0.0019523362 -0.00024890056 -0.0017230844 -0.00022721344 -0.00014488277 0.0014504875 0.002138455 -0.0020989906 0.0027371233 -0.00044716417 0.00016913765 -0.0035059885 0.0017019399 -0.002468513 -0.00091624743 -0.0024480517 -0.00034447614 0.0009940019 -0.0023979559 0.0003368127 -0.003061896 -0.0010363118 -5.928904e-05 -0.0015721042 -0.0017557754 0.00044719112 -0.0028289047 -0.0031420102 0.00022367972 0.0022787703 -0.0035781567 -0.00067294156 -0.00020917832 -0.0017234152 0.0003070565 0.003754392 -0.003430761 -0.0017437054 -0.0031527306 0.00019803688 0.0038671268 -0.0013748554 0.000476733 0.0016520639 0.0025542073 0.0033833869 -0.00017116954 -0.0026491974 -0.0015489414 0.00071546185 0.0009154315 -0.00013367247 0.002357148 0.00027850078 0.00041817935 0.0036826124 -0.0012568265 -0.0033670778 0.00011807709 -0.0029865254 0.003759999 -0.0033916007 -0.0023373635 0.0024324409 0.0026016925 -0.0024732687 -0.003507639 0.00028536102 0.00041544499 0.0029694377 0.002505309 0.0005518399 0.0014674346 -0.002058469 -0.003374433 0.0011163817 0.0018601316 0.003484974 -0.0015237315 -0.0032967879 0.0019548999 -0.0017260287 -0.00040122177 -0.002093452 0.0031983799 -1.7030043e-05 0.0027261204 -0.0011930442 0.003189852 0.0006162389 -0.003350679 -0.0028231938 -0.00238009 -0.0005976778 0.00289455 0.00012209531 -0.00047771944 -0.0012594317 -0.0019012797 0.0014010911 0.0018638535 0.00036509064 -0.0010846225 -0.0024399129 -0.00092121545 0.0024061431 0.0038675764 -0.0012698354 0.0022375593 0.002556581 0.0015834037 -0.00018488431 -0.002893074 -0.001146648 0.00037905763 -0.0014612412
10 -0.0009669481 -0.0008539874 -0.0019885486 -0.0037127803 -0.0038942518 0.0013713251 0.0010981871 0.0037069474 -0.00072911265 0.0026049896 0.000881347 -0.002132073 0.0027717939 0.0019858556 0.0036551356 0.0027913388 -0.0025102138 0.0017370316 -0.0020984642 0.0026345698 -0.0017731439 0.00028022527 -0.0029451558 -0.0033763829 0.0033856805 -0.00035461067 0.00082523393 -0.0013966768 -0.0026973826 -0.00167722 -0.0004495275 -0.0019456376 -0.0022340915 -0.0008784397 0.0018290447 -0.0034778486 -0.0003844936 0.0029029162 0.0033523752 0.0024524617 -0.002801789 -0.0024080449 0.0016822803 0.0009013698 0.0036187219 0.0011767823 -0.0029542744 0.00027608956 -0.0029082072 0.0027787858 -0.0015990225 0.0033287639 0.002759844 0.0006585818 0.0036774334 0.0037971796 -0.0013137688 -0.0038154838 -0.0030412765 0.0031783683 -0.0013790632 -0.002833521 -0.0037618605 -0.003903945 -0.0024207437 0.003105117 -0.0030935304 0.001447465 0.0013084387 -0.0012294244 -0.00048072118 -0.0012143154 0.0013930545 -0.0018059983 0.00379174 -0.0018250729 0.0027718986 0.00086942647 0.0007199465 0.0013829792 -0.0034953908 -0.0019658639 -0.0016334681 0.000876684 0.0037393374 -0.001040464 0.0017013979 -0.00046173215 -0.0024694514 -0.003184761 -0.0034522302 0.0016677994 9.100084e-05 -0.0020450572 0.0010300124 0.0019183652 0.0025104394 0.0029908216 -0.0027768593 0.003081613 -0.00033844498 -0.0006803953 0.00044308178 0.0027909188 -0.0020020916 -0.00022090175 -0.002254681 -0.00028687555 0.002582556 -0.0015567684 -0.0030394087 -0.0030048424 -0.0012896565 -0.0020868788 0.0016018108 -0.0017751773 0.00091845536 0.0015140813 0.0036088252 0.00237357 -0.0030187757 0.0028177775 0.0030354818 0.0013214053 -0.00012854116 0.0016920783 -0.0036062724 -0.0030768076
22 -0.0007479891 0.0033101845 0.0036482578 0.002051483 -0.0015554766 -0.0007926673 9.592455e-05 -0.00075677014 -0.0020744628 0.0022764958 0.0030307043 0.0015276916 -0.0018890846 -0.0027699177 0.00078918063 -0.0005888872 -0.00076038507 0.0032605354 0.0024921095 0.000593052 -0.0010339878 0.0010970181 0.0018079055 0.00049251074 -0.0023447282 0.0029025793 -0.002050914 0.00037040634 0.00037891473 0.0010387993 -0.0016304834 -0.0031155434 0.0013942145 0.0010799632 0.0027430684 -0.0028676372 0.0028830976 -0.0020636348 0.0011922757 0.0018904055 -0.0033136816 0.0011474846 0.0024672383 -0.003328947 -0.0035593421 -0.0016119456 -0.0035296641 0.002176089 0.00064073404 0.0038118882 0.0032004989 0.00044737177 -0.0016441512 -0.002044931 -0.0017112921 0.0020825455 0.0028405641 0.00035841452 -0.0010257108 0.0007981166 0.0018096861 0.0014582509 0.0035374297 -0.0015848117 0.00012647588 -0.0012692272 0.00024535396 0.003297809 -0.0010153427 -0.00018092696 -0.00035653208 -0.00078373717 0.000458931 -0.000191434 -0.0018966019 0.0038469334 0.0022743994 -0.003523777 -0.0033004384 0.0011187294 -0.0037648934 -0.00077956397 -0.0018356425 0.00094039214 0.0009342034 0.0014998249 0.002935392 -0.0017554101 0.00083580526 -0.003846902 0.0015885305 -0.0001302608 -0.0034742474 -0.0036576607 0.001778726 -0.0005027764 0.003825557 0.0009193819 0.0024481423 0.0033220793 0.0023138623 -0.003571157 -0.0037558507 0.002212082 -0.0024728351 0.003481202 0.00072454626 0.0030026794 0.0032830269 -0.0008973926 9.915098e-05 -0.0029745523 0.002226667 0.001680937 -0.0038503779 -0.00076673314 -0.002344725 -0.0023995698 0.0023146742 0.0012606 -0.0035942625 -0.0011033906 -0.0013198798 0.0019710495 0.00030903865 -0.003639878 0.003390678 -0.0022485587
18 -0.00013879863 -0.0038298704 0.001128363 0.0013474913 -0.0010342641 -0.00039398536 -0.0010574998 0.0020240261 -0.002161985 -0.0033961593 0.0003193579 0.003459588 -0.0014373648 0.00018595475 -0.0013910722 0.003807072 -0.00089993764 -0.0037040112 -0.0011659239 0.0018325461 -0.0007511236 0.0009904775 0.0037076653 -0.0028581135 -0.0035923764 0.0019248028 0.0036904647 0.0030987032 0.0038849746 -0.00032414045 0.002923273 0.0032631087 0.0006634113 0.0024611817 0.0011866906 -0.0030035055 0.0020437227 -0.00251666 0.0035111408 0.00044082906 0.0006977263 0.0019073953 -0.0027405568 -0.0024703871 -0.0007036004 -0.0013067588 0.0021087984 0.0017760013 0.0013508851 -0.0026003015 0.0031430854 -0.002926536 0.0029216367 0.0008088261 -0.003586118 0.0032384694 -0.0006695418 0.0026436541 0.0035712784 0.0018051965 0.0035602383 0.0031468354 0.00051287375 0.00096208707 0.003290172 0.0006018781 0.00066837727 -0.0028321699 0.0021927492 -0.0015334926 0.0006759427 0.0007660914 0.0027610245 0.0034774935 0.0014201062 -0.00075328123 0.0027769578 0.0038966537 0.003333652 -0.002365185 -0.0024902448 0.0013781172 0.0022439063 0.0018049098 -0.00051968015 -2.8217508e-05 0.0019998462 -0.0002606076 -0.0018275982 0.00047607758 0.0021437902 -0.0011960584 0.0021520178 0.0030390145 0.0012797796 0.0032688105 -0.0027204708 -0.0014040831 -0.0030811143 -0.003353729 0.0035372544 0.0032645604 0.0026065814 -0.001045752 -0.0010895088 -0.0006907326 -0.0017627113 0.0020765031 -0.002473069 -0.0018053931 0.0036057648 -0.0012819157 -0.0023840768 -0.0026494486 0.0012902754 -0.0037194234 -0.0018586051 -0.0037610522 0.0036048095 -0.0019935723 0.003388351 0.0017315815 -0.0007989896 0.003001445 -0.0010144943 0.0034770363 0.0013161249 0.0026119074
12 0.0007467092 0.001826585 0.0036011524 0.0032169537 0.00030756427 0.0019960662 0.0032953606 0.00018868732 -0.0010972286 -0.002002388 0.0023060513 0.0012381603 0.0029002372 0.0016846582 0.00020099644 -0.0024907878 -0.00070430804 -0.0017434445 -0.0019681014 -0.00021215058 -0.00048162646 -0.002252877 -0.00024222452 0.00031583887 0.003875335 -0.0007726162 0.000412389 0.001389856 -0.0016055645 -0.0021183372 -0.000650498 -0.0013040433 0.0032292104 0.003260485 -0.001634577 -0.001203698 -5.3792563e-05 0.001377043 -0.0024560518 -0.0014943212 0.00082242786 -0.003123349 -0.0022705053 0.0006016867 0.0003917507 -0.0010787088 -0.00095476775 0.0025709178 0.0020160258 -0.003461039 0.0010275382 -0.003084056 0.00088892085 -0.0014643064 0.0028111907 -0.0035361142 -0.00031154242 0.0027746106 -0.0038835702 -0.0018377217 0.0029115912 -0.0007136777 0.0038190344 0.0019270807 -0.0003494487 0.0011735369 0.0006429745 0.0001904341 0.00084805797 0.0033340713 3.6404974e-05 -0.0008622235 -0.0038316383 0.0023781087 -0.00012798984 -0.0026734197 -0.0009541214 0.0037017714 0.0025046966 -0.0019313785 0.0029051662 0.0018846873 0.0010580714 -0.00024890905 -0.0018048272 0.0035707352 -0.0004952231 -0.0009111959 0.0034786516 -0.0030301074 0.00046599825 -0.0034571125 0.0035865586 0.003854546 0.0034939812 6.28657e-05 -0.0039054265 0.002148411 -0.003139278 -0.0012682759 0.00029677886 0.0015293919 0.001105989 -0.0027852894 -0.0018768156 0.0034913206 0.0021946891 -0.002574504 -0.0038444013 -0.0038994064 0.0021849591 -0.0031432493 0.0027941023 0.001429563 0.0014859515 -0.000498229 0.0005830198 -0.0030946636 0.0024612797 0.0015638105 0.0006353238 -0.0011451524 0.0028847032 -0.0030755564 0.0016278399 -0.00232249 -0.0023664553 -0.0016112031
