360 12
6 0.07926396 0.663635 -0.075190045 1.041143 0.1799081 -0.6097689 -0.9301657 -1.6693852 0.39409176 0.12700972 2.5989947 0.8766131
186 0.16593054 0.60305303 0.0323808 0.9216174 0.7795139 -0.3765571 -1.61225 -1.734112 -0.08301942 -0.34375775 2.3448005 0.79575086
11 -0.028409662 1.0528119 -0.6655306 0.6108381 -0.3630108 -0.61969537 -1.252621 -0.99134266 0.6233467 -0.36364484 2.495888 0.62762445
36 0.6312367 -1.0814471 -2.299807 -0.28676665 -1.5788109 0.10935339 -0.39161256 -1.0981078 0.5209066 0.053664044 1.3979365 0.6704792
216 0.25406545 -1.1120654 -2.4047596 -0.5021546 -1.2535622 0.10789338 -0.67030144 -0.8842712 -0.11787616 -0.28814855 1.042992 1.0791006
191 0.07126767 1.0979174 -0.55673707 0.30883202 0.21890086 -0.37467304 -1.8897299 -1.030708 0.15120508 -0.78440845 2.2822952 0.70044214
16 0.14466675 0.8315639 -0.46711707 0.115187176 -1.1491504 -0.23641345 -1.2247897 -1.1302149 0.20136365 -0.21074022 2.4352148 -0.27646375
211 0.4907827 -0.7040976 -1.9514327 -1.3481139 -0.705901 0.43729517 -0.95731455 -1.196646 -0.38780367 -0.14372781 1.3661513 0.6478567
221 0.21725921 -1.675333 -2.211104 0.2007022 -0.7246622 -0.08911384 -0.23404184 -1.3914462 -0.439371 -0.7403986 0.98905885 1.0347986
31 1.01964 -0.5461441 -1.9588121 -1.2235217 -0.9694519 0.31385761 -0.5801262 -1.4043082 0.22779739 0.1148774 1.6663871 0.40285417
196 0.04436312 0.84804446 -0.29557955 -0.2563672 -0.6126223 0.0010517389 -1.843682 -0.9596514 -0.38396266 -0.51264554 2.188495 -0.12172637
206 0.46139714 -0.11601298 -1.8113462 -1.086781 -0.4300017 0.052809518 -1.0588851 -0.9006277 -0.7937632 -0.5605037 2.0041203 -0.13552305
41 0.8061185 -1.5082921 -1.9308423 0.3942608 -1.0410455 0.04306003 0.17929831 -1.8016534 0.06607211 -0.2475952 1.1305412 0.6828584
1 0.48326272 0.54469967 -0.51449656 1.3269478 0.38165238 0.019775676 -1.0558392 -1.4544053 0.031650115 0.8812508 2.6518307 1.5165596
26 1.0037284 0.052046344 -1.8981558 -0.96966535 -0.74820524 -0.14036047 -0.65884584 -1.1750438 -0.018608566 -0.33597657 2.2764173 -0.32289517
21 0.34062645 0.6680715 -1.2180477 -0.75302565 -0.9643981 -0.9113944 -1.2507898 -1.419117 0.09894657 -0.05169238 2.0091102 -0.53078514
201 0.07833849 0.50533205 -1.2681062 -0.94212216 -0.47639266 -0.5589006 -1.6393281 -1.2025818 -0.6572349 -0.3145683 1.816625 -0.32181993
226 0.23372903 -1.8647548 -2.1515355 0.8107628 -0.27065644 -0.49871993 -0.86453384 -1.4153997 -0.33751625 -0.08290866 0.46382236 0.7901165
46 0.64194727 -1.6976879 -1.7181509 0.8916192 -0.5036259 -0.42590368 -0.53929234 -1.9089164 0.29584622 0.21620733 0.45741826 0.46904284
181 0.46698803 0.47588715 -0.38950062 1.0731733 0.88645 0.33448184 -1.5605115 -1.5811629 -0.4914667 0.41750112 2.318043 1.5651232
51 0.37359437 -2.1996174 -0.8224454 1.2063648 -0.7251404 -0.633255 -0.52359116 -1.5585304 0.089907475 0.6251498 0.9557914 -0.18329653
96 0.08318555 -0.5262189 0.6656527 -0.93116224 -0.87033355 -1.6144518 -1.3163257 -1.3580297 -1.2087584 -1.1023118 0.091898724 0.97905827
276 0.3410133 -1.3942671 0.76254886 -0.6409746 -0.6912223 -0.9964071 -1.555465 -1.2853959 -0.5370962 -1.6889683 -0.13185348 0.9730769
231 -0.01747865 -2.3174212 -1.4510068 1.0291097 -0.32912734 -0.6405617 -0.8719395 -1.007425 -0.82791823 0.17752266 0.94573855 -0.020581702
157 1.5817808 -0.5275716 -0.5423857 -0.0946853 0.07831919 -1.6308895 0.025483673 0.16538753 0.53556484 1.3303427 1.1583288 1.4871519
133 0.1460094 -1.1217225 0.817319 0.016578311 0.2453082 -1.1757375 -1.1587785 1.0565118 -0.030377926 0.47966996 1.7086817 1.5070328
313 0.40389425 -1.2203205 1.2005786 -0.10390539 -0.19005314 -1.2418861 -1.2429551 0.9650575 0.0028185723 0.33726633 1.0359563 1.7720531
117 -0.033579074 -1.0224148 0.6081662 -0.57107204 0.055501338 -1.3122689 -0.2655557 0.5166272 -0.9685164 -1.1084702 1.7362504 1.226424
165 2.1847262 -0.40203872 -0.5058839 -0.1432999 -0.11151415 -1.4627299 0.31408423 -0.00023920734 1.1115689 0.63983715 1.2101635 1.3817134
321 0.40165797 -0.8625287 0.22960368 -0.34161797 -0.21659794 -1.6452036 -1.3700494 0.9923001 0.28645954 0.7061414 0.6649135 1.6280029
125 -0.13557526 -1.3498442 0.7498741 -0.45607507 0.5310554 -1.1271654 -0.66116196 0.5293357 -0.4494818 -0.4115218 1.6153675 1.7080582
261 1.0624448 0.6316256 0.3407201 0.1260124 -1.8119092 0.28015408 -2.008943 -0.79639876 -0.45036477 -0.6922632 0.47683692 0.5273197
56 1.0278027 -1.9422258 -0.6754307 2.0658038 -0.64023757 -0.15102972 -0.76156867 -0.561517 0.16911757 0.14968641 1.2702891 -0.3041933
265 1.0073467 1.109822 0.20783849 0.005420618 -1.763978 0.07969805 -2.2226205 -0.9413643 -0.228409 -0.897003 1.0438293 0.2693771
236 0.5614426 -2.2093081 -1.0602216 1.4991419 -0.14317073 -0.1193784 -1.4126235 -0.26759237 -0.46772972 -0.5909182 1.1709199 -0.46205673
305 0.09918978 -1.6579419 0.9942024 -0.343308 -0.19201137 -0.9005026 -0.793995 0.82033205 -0.21085083 -0.5048406 1.1953592 1.964163
149 1.0018544 -0.49040425 -0.13568132 0.14314145 0.40316752 -1.8823802 -0.62623364 0.59630847 0.4276001 1.0720416 1.1457896 1.3980074
345 2.151991 0.3026632 0.0443736 -0.23093757 -0.59828126 -1.6512637 0.005097206 -0.10592843 0.8281474 0.548433 0.84022874 1.6008692
141 0.330503 -0.98612624 -0.008317482 -0.06523065 0.12948474 -1.4237397 -1.1849918 1.1555574 0.55498433 0.84820974 1.3175254 1.5155642
297 0.1585237 -1.4232663 0.708586 -0.34631276 -0.41265693 -0.87058187 -0.5035518 0.9260622 -0.6236189 -1.3655792 1.4153444 1.3152828
109 0.48083586 -0.9032592 1.0359491 -0.86680114 -0.21475036 -1.4378124 -0.008348727 -0.27874404 -0.9537217 -1.3285859 1.2557129 0.91724485
281 0.8075621 -1.0540243 0.8528566 -0.44646615 -0.49811718 -1.258557 -0.75661606 -0.5151774 -0.6785671 -2.0772066 0.23367795 1.2640302
81 1.1411014 0.58070886 0.38689438 0.8494719 -1.7804192 -0.24638799 -1.3894527 -1.5076545 -0.87509125 -0.4872414 0.5615577 0.049706385
86 0.85143703 0.17008772 0.8080864 0.26412532 -1.8155233 -0.30943537 -0.88764286 -1.9504478 -0.9798908 -0.25044805 0.25529012 1.1838092
337 1.5885897 -0.02738607 -0.25737652 -0.44957682 -0.34436935 -1.7596722 -0.38555303 0.055773333 0.465986 1.2904665 0.6838422 1.4942118
241 1.4708616 -2.1115906 -0.8187707 0.73536843 -0.49052203 0.15067697 -1.5443935 0.41878992 -0.960404 0.171709 1.1323551 -0.7240354
329 0.9937714 -0.15857866 0.118218645 -0.24267258 0.06550326 -2.0503438 -1.0145932 0.51607573 0.19571297 0.966028 0.6728881 1.4313797
266 0.95543814 -0.21241641 0.84108377 0.05134355 -1.7654511 0.4552905 -1.3678341 -1.2607993 -0.48563462 -0.69697165 0.19076575 1.4313116
91 0.9620941 -0.123732075 0.8072867 -0.6178553 -0.71258044 -0.91458464 -1.4820542 -2.1503112 -1.1226776 -0.39859366 -0.2181874 1.05516
85 0.97769916 0.81085396 0.09056813 0.699623 -1.6992089 -0.21748173 -1.5860897 -1.6963351 -0.4911568 -0.72910017 1.0394309 -0.27396873
66 2.2747192 -1.3511485 0.0646313 1.6955494 -0.8764098 -0.5059097 -1.5659366 0.11146564 -0.95155334 -0.01956336 0.015027645 -0.040993977
271 1.1037762 -0.38667756 0.736968 -0.7369723 -0.6317481 -0.20775959 -1.848699 -1.4074954 -0.5394825 -1.1228495 -0.31533098 1.4386386
176 2.0542397 -1.4316796 0.9060567 -0.92791086 -1.1323926 -1.2058438 0.51281804 -0.73652804 0.620258 -0.71306974 1.4729491 0.13823059
256 1.7677512 0.19103794 0.000996629 0.24346119 -2.00323 0.25512287 -2.0486526 -0.16808076 -0.836139 0.29917902 0.33530444 0.27812624
97 -0.11768174 -1.0719475 0.47014895 -1.0676216 -1.1625247 -1.990029 -1.477921 -1.6378084 -1.0177406 -1.0137767 -0.025025932 1.0796113
61 1.9632543 -1.8284035 -0.11235521 1.4292212 -0.47914836 0.28390422 -0.94473416 -0.42187008 -0.86544317 0.4175619 1.0343987 -0.5305228
111 1.5296748 -1.4692965 0.70211893 -1.3245673 -0.6559935 -1.4487363 0.39858705 -0.34065968 -0.17574754 -0.9353223 1.5175307 -0.074349634
98 -0.3234639 -1.1533682 0.3895638 -1.0225674 -1.3081803 -1.8173077 -1.5557008 -1.5946547 -1.198143 -1.1273369 0.10826095 1.0496072
101 0.52349406 -0.7479437 0.7573004 -0.8352671 -0.30511925 -1.580224 -0.32437357 -0.83947885 -1.1343633 -1.6905301 0.5918824 1.3756883
100 -0.29160216 -0.96737856 0.4577371 -1.0977188 -1.1026274 -1.7599957 -1.5833089 -1.565456 -1.2808332 -1.1147225 0.20827647 1.0489569
289 0.68839663 -1.2385509 1.0691291 -0.5503749 -0.55218637 -1.1735417 -0.46852052 0.17459352 -0.5928865 -1.8185887 0.9659706 0.7928166
279 -0.08108978 -1.7551904 0.5039261 -0.6365325 -0.8713587 -1.3822606 -1.9572753 -1.5387112 -0.7057802 -1.6906513 -0.018527072 0.87888193
99 -0.16923696 -1.0285848 0.25269863 -1.0690411 -1.1347755 -1.9907662 -1.6322687 -1.5938846 -1.2050757 -1.1421957 -0.020518193 1.0321171
280 -0.015393445 -1.6925695 0.59342426 -0.6162467 -0.94492096 -1.4020809 -1.9627547 -1.6049579 -0.53813165 -1.6966791 -0.10996181 1.0282446
246 2.1268678 -1.2260183 -0.80808157 0.77848303 -0.90877306 -0.21930009 -2.2716582 0.17157967 -0.55253965 0.03913819 0.10614776 -0.6513899
251 1.6785178 -0.19641635 -0.8409679 1.0532837 -1.1168724 0.111443244 -2.2315364 0.45570105 -1.4669003 -0.3001708 0.54753083 -0.005534878
278 -0.0013560279 -1.7162572 0.5912474 -0.72262764 -1.10373 -1.4391928 -1.815535 -1.6189635 -0.56216514 -1.6327424 -0.03854296 0.87472034
356 1.9090854 -1.1220237 0.65839857 -1.1000477 -1.3559262 -1.41652 -0.018242322 -0.27189496 0.89802194 -1.0570776 1.2823861 0.035836734
71 2.0198958 -0.2523962 -0.49572486 1.677737 -0.8432285 -0.12972844 -1.7010823 -0.34430873 -1.6773658 0.43995407 0.28057638 0.26772997
277 -0.044640124 -1.7786083 0.5502448 -0.76653427 -0.88219047 -1.212715 -1.8035958 -1.7605375 -0.72684854 -1.6763611 0.0010858595 0.97755
291 1.6330338 -1.2193869 0.6890101 -1.2416484 -0.9454311 -1.6574197 -0.13980192 0.025774198 0.15990417 -1.3969315 1.4746077 -0.24558975
53 0.13710059 -2.3626046 -0.6265236 1.0533513 -0.8723942 -0.8062874 -0.6176231 -1.6281387 -0.10091481 1.0071863 1.145987 -0.16710337
54 0.19554824 -2.3588326 -0.5641035 1.0702722 -0.7060308 -0.93722373 -0.53604805 -1.8544134 -0.23939198 0.91038066 1.1600997 -0.23749155
76 1.5315379 0.21611549 0.19597113 0.90665275 -2.0500169 -0.5365009 -1.3436843 -0.489614 -1.4045486 0.27216333 0.4361691 -0.035952162
55 0.1028281 -2.3660476 -0.77276576 1.0840906 -1.0240431 -0.80395275 -0.83493024 -1.6722142 -0.10986162 1.0034214 1.0966662 -0.27183396
264 1.1437377 0.93291426 0.3020008 0.2958569 -2.0673873 -0.08605428 -2.0998235 -0.77620006 -0.22038074 -1.1942192 0.80323565 0.4557203
52 0.116538666 -2.3993826 -0.5797062 1.0710894 -0.8512407 -1.0350878 -0.5364575 -1.7026541 -0.13972133 0.935288 1.1116921 -0.18420814
353 2.1569145 0.09251746 0.10726105 -0.14831215 -1.2241191 -1.7605845 0.1885887 -0.14258736 1.2178913 0.43264174 1.2786458 0.77649117
173 2.3820772 -0.44533017 0.017562501 0.22291826 -0.77469456 -1.5905651 0.5379696 -0.11277637 1.2755519 0.41205865 1.6150402 0.74751073
232 -0.21696517 -2.5353348 -1.1300269 0.89205545 -0.356493 -0.84601825 -0.88398385 -1.3788496 -1.1941055 0.5119738 1.192722 -0.058264334
263 1.095959 0.8553485 0.29280162 0.35600793 -2.1685421 -0.024293998 -2.2538304 -0.8382694 -0.2526791 -1.1406143 0.8618361 0.42903635
57 0.97503763 -1.8917184 -0.59795046 2.4085674 -0.38626078 -0.3610887 -1.0908083 -0.4368361 0.44448456 -0.119165316 1.5743577 -0.37231737
249 2.305211 -1.1927896 -0.6101266 0.40368396 -1.5560267 -0.6142413 -2.1855047 0.095113724 -0.4340347 -0.013887715 -0.050894715 -0.70325136
90 0.9715678 0.06641283 0.8525215 0.2880104 -2.0517156 -0.17201822 -0.57285416 -2.0427663 -0.98470175 -0.14530753 0.5011162 1.6500974
234 -0.21247855 -2.4703467 -1.0398576 0.9442095 -0.3096575 -0.9063108 -0.9772002 -1.3669674 -1.1101614 0.6404859 1.1586887 -0.058846954
69 2.4420269 -1.2863629 0.5064385 1.3174403 -1.4388623 -0.8264501 -1.8290642 0.022287771 -0.7732275 0.111258365 -0.11289221 -0.22758174
262 1.1997422 0.8619272 0.4067143 0.2593725 -2.166738 0.0729157 -2.155567 -0.9258604 -0.29470217 -1.2181281 0.9309619 0.3788783
233 -0.2372269 -2.364864 -1.1221467 1.0344877 -0.33465892 -0.83394444 -0.95446426 -1.499859 -1.19259 0.5349648 1.168963 -0.0047526755
77 1.9837209 -0.35479957 0.17367695 0.964508 -2.487081 -0.85495526 -1.3267068 -0.16949317 -1.107528 0.3119484 0.20151591 -0.10395662
82 1.0263132 0.5724589 0.21941704 1.0325807 -2.0814195 -0.4396602 -1.6942829 -1.6462411 -0.41436085 -0.93843585 0.8224829 -0.16988903
87 0.8791985 -0.016843034 1.1246419 0.29374373 -2.0601945 -0.25895438 -0.7543292 -2.2533796 -0.58130836 -0.045500677 0.57054794 1.678888
358 2.417211 -0.55121934 0.83454055 -1.3672498 -1.909513 -0.54854 -0.22547314 0.16864613 1.0406688 -0.08852 2.2026868 0.5637401
83 1.1810228 0.7926961 0.17040619 0.9826649 -2.0158353 -0.4432885 -1.6125855 -1.6340028 -0.4860374 -0.90291876 0.904555 -0.14888956
235 -0.17379883 -2.5910568 -1.0831926 1.0219885 -0.23383006 -0.8625189 -0.94235474 -1.359234 -1.0507514 0.53817046 1.1699774 0.0018667913
257 1.633485 -0.5419092 -0.0028487989 0.0870568 -2.3165927 -0.15887707 -2.1020603 0.07352928 -0.8594138 0.37833416 0.23160838 -0.14213213
88 0.9034076 -0.07739114 1.1138333 0.40465078 -2.038788 -0.15485609 -0.6645096 -2.2203352 -0.67240155 -0.17266746 0.6236786 1.5645078
239 0.53400356 -2.3264072 -0.73723143 1.8326783 -0.23332663 -0.06600772 -1.6808999 -0.4059288 0.07171806 -0.9225875 1.3882089 -0.35197616
122 0.65250677 -0.75489044 -0.0009603414 0.79807025 -0.88359493 -0.4425582 0.6816927 0.5168984 -1.6078988 -0.9212385 2.7971754 1.7609452
237 0.56161267 -2.3074265 -0.8544346 1.7670809 -0.30896774 -0.4292943 -1.4661443 -0.2613849 -0.042076983 -0.93765616 1.4236906 -0.56180936
89 0.9783045 -0.13913335 1.1123824 0.18711604 -2.0605438 0.02502697 -0.6145475 -2.1890128 -0.99057776 -0.04428099 0.7265544 1.4305283
245 1.8933003 -2.4106388 -0.6240515 0.502565 -0.4190005 0.32426566 -1.4423094 0.47380581 -1.1661618 0.32882738 1.5156454 -0.65276617
302 0.4061622 -1.1893922 -0.011672519 0.8511062 -1.5199622 -0.16624898 0.366361 0.69448423 -1.4792683 -0.9329198 2.3721762 1.8328953
114 1.8507309 -1.1006498 1.7968606 -0.43721047 0.5705078 -1.2570865 -0.5850707 -0.69337994 -0.6743259 -1.0775666 2.30373 -0.36500078
154 1.47042 -0.3016644 -1.0882325 0.4428476 1.1231364 -2.774831 -1.5399722 0.38215533 -0.6743838 0.5733665 1.3246833 0.14739989
152 1.2800447 -0.8192889 -0.3238919 0.73465115 1.5889127 -2.8860633 -1.8161297 -0.59905654 0.113875166 0.52899534 0.84103036 0.60984397
60 0.97941315 -1.9969561 -0.69570976 2.3415747 -0.6087656 -0.13941658 -0.95887625 -0.4863209 0.5294236 -0.27735972 1.6217813 -0.23595962
242 1.8633761 -2.4906502 -0.4936258 0.46054265 -0.21215251 0.5094294 -1.7500563 0.35651475 -0.9237792 0.3793843 1.5227598 -0.60300684
267 1.0914879 -0.3382709 0.98170155 0.24209565 -1.9549631 0.65277743 -1.1960459 -1.4988973 -0.54464704 -0.5844254 0.41537368 2.0258536
84 0.9801084 0.6904351 0.14711414 1.0676769 -2.1129897 -0.36629266 -1.6606163 -1.575641 -0.69831043 -1.0189474 0.8797029 -0.06340241
238 0.6783233 -2.465488 -0.94148177 1.6995249 -0.18711069 -0.28343156 -1.3790392 -0.23709027 -0.06803116 -1.0571355 1.6013994 -0.5033295
123 0.14490561 -1.137224 0.33050877 0.71691346 -0.81240344 -0.98898345 0.64407253 0.35825402 -1.3715042 -1.0402436 2.5216286 1.5412668
178 2.208743 -0.8209757 1.055043 -1.0880092 -1.5631081 -0.32763034 0.17873295 -0.21815833 0.99494493 -0.00546156 2.5361445 0.47053954
59 1.095724 -2.0388823 -0.64677423 2.2798383 -0.35443673 -0.59099287 -0.8659308 -0.5202684 0.41332448 -0.31457475 1.6298418 -0.49202326
240 0.59772795 -2.172092 -1.0871627 1.8619969 -0.14010055 -0.32917422 -1.4712723 -0.17713307 -0.039571747 -0.8830797 1.4973749 -0.40608042
244 1.871099 -2.1880875 -0.6167557 0.50999 -0.16890295 0.28223407 -1.5939306 0.4108387 -1.0860356 0.51999176 1.5363946 -0.7537263
301 0.8538607 -0.5075082 -0.38061297 0.4539846 -1.3139638 0.13332677 0.028942937 0.92059404 -1.5139905 -1.3572515 2.5322628 2.108362
332 1.0373186 -0.55703044 -0.17857608 0.6155539 0.87069064 -3.3383393 -1.7066828 -0.7999798 -0.077626295 0.6120732 0.5929934 0.49716562
270 0.8531788 -0.48333344 1.0156775 0.35154265 -2.0414543 0.5368694 -1.2350757 -1.50258 -0.5196746 -0.51575553 0.4038332 1.9194672
113 1.8428732 -1.4357538 1.3569456 -1.034199 0.50464875 -1.2764599 -0.6270624 -0.6966864 -0.18693979 -0.8873138 2.22339 -0.7417043
273 1.557774 -0.34469053 0.68989396 -1.0948148 -0.40351143 -0.29583085 -2.055623 -1.6750703 -0.36589304 -0.8608265 -0.30280304 1.480191
275 1.4413047 -0.50633585 0.6676731 -0.94631577 -0.11845174 -0.028540488 -2.1758316 -1.7121117 -0.66521037 -0.8248406 -0.24865296 1.5458754
359 2.2534854 -0.08844388 0.57716167 -0.8726121 -1.9522694 -0.8802428 0.06877663 0.27012187 1.0090964 0.264391 2.428275 0.67913264
243 1.8682772 -2.4596412 -0.5887173 0.570481 -0.47481656 0.22095852 -1.351745 0.6080072 -1.1794509 0.41301313 1.6341105 -0.65284985
268 1.1280117 -0.4141656 0.899573 0.20411699 -2.0992131 0.6297288 -1.095309 -1.5814197 -0.5441004 -0.640099 0.42566678 1.8929397
151 1.1439377 -0.91159767 0.1416465 0.7465036 1.290755 -2.7256093 -1.4630194 -0.55822563 0.4052372 0.73084855 0.66431224 1.2845402
153 1.3245752 -0.4348575 -0.85754085 0.95182705 1.2663145 -3.074363 -1.7363962 -0.32629138 -0.35052904 0.4985641 1.0986077 0.22690125
121 0.6445773 -0.7938635 0.026548844 0.36050978 -0.98805594 0.15837224 0.13425308 0.5714969 -2.1974478 -0.85514385 2.8337219 1.6757638
247 2.546905 -1.3431423 -0.6807922 0.53979933 -1.2107722 -0.702778 -2.2887464 0.26359755 -0.4959208 -0.24532989 -0.0967997 -0.58678734
112 2.0041738 -1.5428964 0.8686853 -1.2979984 0.093274705 -1.4761648 -0.05290971 -0.38540915 -0.09498584 -0.96722174 2.0168223 -0.4923981
58 1.1143681 -1.986071 -0.6892352 2.346006 -0.23069608 -0.37993634 -1.0797782 -0.4962177 0.58268404 -0.12983422 1.5895485 -0.36987004
155 1.4793781 -0.17049095 -0.9296422 0.44191208 0.6133018 -2.63563 -1.278222 0.9486662 -0.4415063 0.8289828 1.587549 0.3583322
65 2.3533504 -1.9704683 -0.060406312 1.1837829 -0.45384192 0.528661 -0.83862513 -0.34303713 -1.0440884 0.41148126 1.5210135 -0.5623818
300 0.95092267 -0.82292783 0.034932353 -0.3638805 -1.092552 0.65106463 -0.46953052 0.86610043 -1.836433 -1.3065444 2.4706802 1.8177892
331 1.0402113 -0.64036214 0.33695078 0.3293186 0.89425683 -3.186306 -1.4455433 -0.6420099 0.29803893 0.59784037 0.5343261 1.1611404
269 0.93962485 -0.3573922 0.8054364 0.41357714 -2.0990033 0.25187004 -1.2539239 -1.4697844 -0.35301194 -0.4732566 0.07997824 2.0782104
319 -0.07718424 -1.5066007 1.7850269 0.37342957 -0.70663077 -1.495123 -1.8556572 0.45372167 -0.9469454 1.281875 1.7205514 1.102811
308 1.03626 -2.8918931 0.43673578 -0.18596601 0.63852113 0.35467416 -0.61855906 -0.24965666 0.112672925 -0.10589065 1.6355566 2.3353217
255 1.8080707 0.055015597 -1.0668718 1.2813163 -0.9071336 0.1699365 -2.5795107 0.68817884 -1.5733681 -0.1387595 0.75190157 0.6509534
146 0.04196011 -1.0176421 -0.9186999 0.50507945 -0.65639466 -0.6334761 -2.7885132 0.31260297 1.1331754 1.2724906 0.9279461 2.0717902
294 1.817146 -1.0351721 1.8567357 -0.28627732 0.21416956 -1.3323684 -0.9932509 -0.6005328 -0.4406114 -1.5687263 2.1114285 -0.6196267
93 1.1647882 -0.24894372 0.7809183 -0.70689654 -0.18172944 -0.73860127 -1.8674616 -2.3660398 -1.273046 -0.1361365 -0.18662226 1.2808172
159 2.4570973 -0.8902125 -0.13171715 -0.25484464 -0.010845277 -1.0053484 -0.36142364 -0.5106386 -0.35384655 2.3748384 1.0115967 1.3939673
62 2.394245 -2.1906269 -0.20246765 1.2208675 -0.59391576 0.2951648 -0.5543888 -0.24579601 -1.1752373 0.30988643 1.4642926 -0.54849654
68 2.67879 -1.3774796 0.45069122 1.4214377 -0.9470872 -0.8383876 -2.0260386 0.116350874 -0.719952 0.09703135 -0.123930864 -0.09383703
92 1.2714456 -0.31130263 0.92427635 -0.5936168 -0.19746742 -0.9066283 -1.8703481 -2.3109798 -0.9200266 -0.23008153 -0.30521965 1.2974197
120 1.1070886 -0.51311845 0.040041268 -0.34686038 -0.6402943 0.12019569 -0.079064205 0.85341233 -2.1375663 -0.8160102 2.3829305 1.8200626
75 2.0732672 -0.10245845 -0.7110643 1.8705795 -0.71683985 -0.12037935 -1.9053445 0.01745743 -1.8995663 0.55710566 0.48161826 0.9470219
274 1.455292 -0.45362616 0.5228118 -0.84373367 -0.19402407 -0.07474027 -2.1625512 -1.7011029 -0.61509854 -0.950717 -0.35468316 1.4585265
253 2.0545366 0.25415874 -1.1211319 1.2469363 -0.87164795 0.117158234 -2.4202142 0.5492621 -1.4260422 -0.004805577 0.8121706 0.38423547
179 2.356862 -0.45732087 0.5855419 -0.4614858 -1.5472953 -0.5385353 0.47077462 0.02030873 0.9776224 0.3239042 2.5453832 0.6981177
254 1.8780895 0.11434252 -1.0887249 1.3885045 -0.81610394 0.13193144 -2.5333261 0.55847263 -1.4038985 0.046965018 0.7703844 0.4923415
70 2.607753 -1.543854 0.23230422 1.5858517 -1.2380228 -0.9176258 -1.8680884 0.24084792 -0.69221276 -0.1328074 -0.22462538 0.06332993
303 0.33092642 -1.2464992 0.5207168 0.96145326 -1.1509864 -0.7328329 0.32356584 0.7926785 -0.9185303 -1.2391518 2.3431242 1.6220655
177 2.1946497 -1.3285636 1.1017152 -1.1210965 -1.6596538 -0.53102046 0.2785697 -0.5150608 0.74914056 -0.43977168 2.0224652 0.25574797
250 2.517298 -1.2761519 -0.5867796 0.65826494 -1.115486 -0.7602622 -2.3384507 0.11783863 -0.37234905 -0.076464735 -0.08383813 -0.7073841
64 2.2866933 -2.0378432 -0.15236536 1.1885659 -0.56702805 0.49375457 -0.65858585 -0.2385685 -1.1865923 0.5122475 1.4592537 -0.4137366
95 1.4902135 -0.293535 0.88405544 -0.88452375 -0.31685317 -0.97516835 -1.7425197 -2.5488064 -0.676411 -0.15685566 -0.2193185 1.0591192
309 0.68305904 -2.8593402 0.59638673 -0.41683725 0.44461834 0.4775778 -0.63345236 -0.85750693 0.64122707 -0.26186764 2.021366 2.2163186
314 0.9509249 -0.84719056 1.6006309 0.305466 0.080482334 -1.0276479 -1.927527 1.220122 0.2184364 0.15414426 1.5093637 2.0220754
333 1.3886147 -0.31538057 -0.5569652 0.3173075 0.94337827 -3.3609278 -1.691882 -0.61098576 -0.55962914 0.67594594 0.8891609 0.04680505
73 1.8371655 -0.27002776 -0.62876904 1.8502233 -0.63805264 -0.16184779 -1.9393525 0.04571054 -2.087591 0.4132305 0.40120497 0.8868973
67 2.5376964 -1.5532919 0.34508938 1.3941152 -1.079921 -0.87074894 -1.85431 0.12752841 -0.7350295 0.00749036 -0.25999495 -0.00415641
299 0.7188489 -0.9487683 0.006710431 -0.9411221 -0.6738417 0.123415954 -0.68680394 1.0976571 -1.6123042 -1.3539935 2.0774107 1.8580554
139 -0.09452266 -1.6552817 1.5746768 0.37942562 -0.44698656 -1.2113127 -1.6443504 0.3828235 -0.8192711 1.5624882 2.1497312 1.1455237
335 1.382737 0.11947832 -0.79776347 0.036100417 0.1501361 -2.9295382 -1.4710451 0.8353555 -0.6694693 0.92068744 1.2327822 0.43144724
284 1.1504902 -0.6542424 -0.65870047 0.74064845 0.46058586 -2.0807917 -0.7662092 -1.3387566 -0.5571555 -3.033 0.9570205 1.0367337
162 1.4333637 -0.96388173 -0.49635196 -0.2815775 -0.83822006 -1.7761726 0.63168323 -0.75971895 -1.3973088 1.9521338 1.2162544 1.9479958
124 -0.10134955 -1.0914936 0.3922361 0.23837663 -0.3592415 -1.4785914 0.25166184 0.62913305 -0.92695767 -1.2796661 2.2643304 1.3090951
145 0.21690886 -1.3411772 -0.8253215 0.04767153 -0.78087515 -0.6598544 -3.1121902 0.22182491 1.7292633 1.0808644 1.0623405 1.3816583
324 0.30215943 -1.1845905 -0.4045879 -1.0446091 -0.53386545 -1.0591677 -3.1375384 0.047370527 1.2696097 1.0273776 0.7357557 1.3302734
94 1.3856941 -0.34361908 1.0068405 -0.8673409 -0.28471857 -0.8490907 -1.8012395 -2.3103683 -0.994336 -0.13064948 -0.18650383 1.0523297
164 1.253391 -0.58437 -0.9419208 -0.1809515 -0.44021872 -2.1383274 0.47912416 -0.17160723 0.12149075 1.5910295 1.3846722 1.9428979
334 1.2616788 -0.1272941 -0.68781203 0.42157772 0.45301133 -3.2108724 -1.4944556 0.17105862 -0.77869797 0.86164755 1.2911985 -0.102074035
160 2.1962488 -1.0448056 0.027904445 -0.62012756 -0.12844925 -0.93540233 -0.20129703 -0.90114814 -1.1403971 2.3862672 1.0880239 1.4334809
318 0.10930363 -1.2324865 2.0688882 0.67350924 -0.66929656 -1.0375068 -2.4493024 0.076181926 -0.95717543 1.3498626 1.7253276 1.1168655
147 -0.04188036 -0.81782156 -0.72539544 0.88446534 -0.68485135 -1.1176817 -2.1048625 0.78850806 0.93234795 0.99391097 0.9775167 2.2372012
272 1.5516281 -0.35452572 0.6617248 -1.0617807 -0.2359932 -0.19788054 -2.144155 -1.7367617 -0.48993954 -0.9834393 -0.2863455 1.3982534
128 0.9127253 -2.643617 0.26859137 0.13280158 1.255834 -0.03733624 -0.58816296 -0.35076803 0.31869406 -0.24868709 1.8748858 2.3389027
134 0.77429336 -0.65477246 1.3437563 0.2629375 0.44549203 -0.9335587 -1.8530307 1.2770456 0.06962567 0.29277882 1.9896061 1.7773832
292 1.8243589 -1.25312 0.9453139 -1.2878203 -0.54070985 -1.8523167 -0.6157745 -0.178315 -0.06603324 -1.111011 1.8796166 -0.94705975
258 1.5240326 -0.32636204 -0.028851867 0.11722219 -2.6376286 -0.20881572 -1.9863304 0.102974735 -1.0312656 0.5299932 0.38000855 0.13984421
298 0.4784904 -1.1210613 0.31043804 -0.78040564 -0.34005347 -0.45045885 -0.8417833 1.2200993 -1.1944652 -1.5562168 1.7735852 1.4840713
166 2.6803205 0.22841668 -0.47673067 -0.26134038 0.45200512 -1.5707328 0.3679658 -0.7312132 0.92637825 0.38475457 1.6744066 1.7527361
285 1.4507772 -0.48527408 -1.1377974 0.6747203 0.35440883 -2.0407572 -1.1496291 -1.0285366 -1.3378782 -2.9247613 0.58288527 0.76034546
350 3.2847364 0.17293917 -1.3372693 -0.077408515 -0.59928066 -0.809742 -0.16973346 0.048754796 0.07586075 -0.7755304 0.47360745 2.2422068
63 2.2421234 -2.125548 0.17167127 1.2168462 -0.6260531 0.639169 -0.8585008 -0.42234316 -1.1225971 0.38511357 1.511437 -0.49002954
326 -0.25077274 -0.8299984 -0.72340924 0.29995888 -1.1567928 -1.1649212 -2.8951612 0.13010155 1.0857531 0.8162981 0.48333773 2.0341403
342 1.245889 -0.97730595 -0.5110305 -0.92257 -1.0202132 -1.8294373 0.3258296 -0.7960454 -1.2587028 1.8000493 0.8822532 2.0326095
327 -0.25133008 -0.6973721 -0.57674813 0.5185332 -1.0306245 -1.3506021 -2.1466458 0.6251674 0.675305 0.84404 0.6474015 2.3771074
74 1.8236701 -0.20629865 -0.81876403 2.0464966 -0.7672095 -0.22584173 -1.792035 0.08096108 -1.9381773 0.2546267 0.4753001 0.80110806
360 2.1642618 0.12440656 0.36317027 -0.2745778 -1.7548666 -1.3255554 0.22156626 0.19594704 1.1250807 0.5762426 2.1474538 0.8547731
252 2.007799 0.15507184 -1.1264533 1.570575 -0.997865 0.1355265 -2.3191895 0.5571135 -1.2639074 0.01925647 0.8792314 0.55601186
325 0.03074638 -1.0625616 -0.8887163 -0.53549033 -0.6554361 -0.7987901 -3.3613913 -0.008193443 0.9729698 1.112917 0.6313969 1.7460027
340 2.1714373 -1.279459 -0.14207843 -1.0123523 -0.6866531 -0.8034344 -0.33663616 -0.7104263 -0.9767524 2.2424903 0.6227258 1.7689346
259 1.557021 -0.28884012 -0.10416537 0.1282505 -2.6532645 -0.1911007 -1.9018273 0.29995477 -1.1700459 0.27357033 0.4866765 0.063660264
163 1.1756197 -0.6866472 -0.82382065 -0.25264066 -0.7081407 -2.2483897 0.69811285 -0.5629863 -0.7970956 1.6607212 1.3267087 2.0352716
72 1.9875463 -0.1469249 -0.7247446 1.7584755 -0.67325133 -0.22048225 -1.7860426 -0.080098785 -2.135573 0.42860797 0.47136924 0.6640979
156 1.333522 -0.15788545 -0.53777856 0.37183625 0.47168937 -2.320939 -1.0278436 1.0769883 -0.3190591 1.1369054 1.452484 1.0457456
170 3.0521739 -0.13131899 -1.3593031 0.50114745 -0.098070644 -0.513363 -0.25486943 0.13731617 0.42618817 -0.7600668 0.672229 2.2111304
328 0.045928728 -0.88365525 -0.22294317 0.3117654 -0.77204615 -1.7100618 -1.6201254 1.0386919 0.49227828 0.6385959 0.6627275 2.0883853
129 0.7452837 -2.3662043 0.41510394 -0.31475452 0.89671963 0.12465705 -0.309188 -1.0555532 0.4809874 -0.1792369 2.1185203 2.86759
126 0.422326 -2.2953703 0.7055735 -0.02477413 0.9087247 -1.0090154 -0.62785983 0.45140502 -0.575337 -0.37263834 1.5385948 2.1117988
320 0.184583 -1.6917044 1.6186056 0.062009186 -0.6012951 -1.5324593 -1.3225958 0.8690943 -0.41435292 1.0676954 1.6504701 1.4239861
282 0.7663075 -0.52258223 0.52440447 -0.19880919 -0.12195373 -1.6676551 -0.8544619 -0.78878814 -0.21820317 -2.6936126 0.5919367 1.5238309
341 1.756033 -1.1522565 -0.29439807 -1.1549547 -0.9380103 -1.3496367 0.090113 -0.89562804 -1.4586682 2.1464767 0.9415329 1.4602771
175 2.2047358 -1.4638321 0.5575028 -0.55926627 -0.77238613 -1.6489581 0.4003409 -0.82381135 1.2742385 -0.4738423 1.011411 0.2808479
115 1.2606821 -1.2018104 1.7550313 -0.32145008 0.5512237 -0.9858005 -0.66547054 -0.716646 -1.188078 -1.5242195 2.1768198 -0.0111383675
349 3.3124108 0.7259922 -1.556271 0.09576141 -0.122006044 -0.8253227 -0.28351283 -0.671305 -0.07540317 -0.7837502 0.73351765 2.051397
144 0.3643239 -1.4613262 -0.8048204 -0.7204536 -0.14632076 -0.811822 -3.144261 0.31630078 1.3220294 1.1211586 1.1411865 1.0591677
293 2.2781227 -0.9241058 1.3430415 -0.9838747 0.11682863 -1.5643958 -0.8941578 -0.416742 -0.32867476 -1.2354336 2.083354 -0.96879315
339 2.4435787 -0.88889366 -0.022431828 -0.76139885 -0.3806276 -1.1097252 -0.63945675 -0.42094067 -0.32208836 2.4212844 0.8285222 1.4071742
138 0.10484049 -1.2860154 1.6264809 0.5595562 -0.296132 -0.6863497 -2.3359537 0.19230919 -1.2246227 1.6591189 2.0943005 1.1687577
107 1.401783 -1.1793859 -0.28091204 -0.007802794 -0.21937932 -2.1880636 -0.27956372 -0.86709315 -2.129691 -1.8290441 0.13879439 1.0717494
357 2.1307316 -0.9022041 0.9739319 -1.4467975 -1.7852443 -0.7645519 -0.17451331 -0.27901843 1.0894538 -0.74981374 1.8080775 0.3366822
248 2.5100055 -1.5236397 -0.8380212 0.6481649 -1.3206315 -0.7191419 -2.1829462 0.2868162 -0.47656974 -0.10696854 -0.2045836 -0.45955753
105 1.3891293 -0.39168522 -1.040751 0.6020974 0.09948181 -2.5078843 -0.35516858 -1.365094 -1.457344 -2.5762804 0.8048122 0.842491
140 -0.050161492 -1.7148724 1.231521 0.24217488 -0.13602948 -1.4212795 -1.3641037 0.8806305 -0.3170033 1.1425623 2.1875472 1.1555614
150 0.9754233 -0.64332044 0.19254763 0.348764 0.9248353 -2.5902886 -1.1859407 -0.22451054 0.4024473 1.2014408 0.9564125 1.7338188
287 1.4173992 -1.3169221 -0.002713243 0.48335776 -0.058172867 -1.78736 -0.7630795 -0.88047814 -2.1051886 -2.1305091 0.013081785 1.11459
106 1.410666 -0.8223878 -0.8722312 0.3368573 -0.05718859 -2.3599548 -0.48304877 -0.880226 -1.9328448 -2.1660473 0.37893394 0.8251075
330 0.9746294 -0.5560227 0.32309204 -0.05325142 0.5504137 -2.8361201 -1.2075996 -0.20665924 0.39439255 0.9102296 0.5370308 1.6589683
174 2.5040958 -1.1145651 0.14790861 -0.046273194 -0.89637506 -2.0238838 0.6460738 -0.42242646 1.1520708 -0.13631992 1.1449131 0.3487673
323 0.41095808 -1.3223314 -0.25870946 -1.2691187 -0.1705558 -1.4471873 -2.7721956 0.59152466 0.81456465 0.92019653 0.7821529 1.1111934
80 1.7455438 -0.041691475 0.18772511 1.0343643 -2.5332341 -0.9786099 -1.5918986 -0.3354965 -1.219674 0.6803839 0.31777585 0.029096672
167 3.015658 0.47441122 -0.7086048 -0.32907107 0.7331645 -1.336009 0.2388272 -0.9217277 0.5497306 0.024141146 1.7019001 1.6197886
158 2.2511365 -0.6846021 -0.5105577 -0.14241725 0.14888646 -1.249959 -0.4221643 -0.14416432 0.30012992 2.0934284 0.97282153 1.440432
143 0.25081486 -1.5718439 -0.35172275 -1.0710844 -0.108444676 -1.4705712 -2.4431283 0.56644434 1.3094735 0.9150402 1.3936483 0.7560164
283 0.87172806 -0.48389015 -0.10063648 0.23169817 -0.07060104 -1.842938 -0.84173405 -1.1369523 -0.23515101 -3.1447656 0.92976654 1.252646
286 1.4496177 -0.98883015 -0.43478492 0.7997947 0.12155324 -2.043583 -0.83613735 -1.0421298 -1.9235442 -2.333144 0.33123648 0.5847652
347 3.1461039 0.91945815 -0.5086556 -0.40126547 0.3221312 -1.4885033 0.0973544 -0.9772995 0.2522416 -0.016605621 1.4512663 1.5561396
295 1.4863003 -1.1927367 1.9154885 -0.044757817 0.07305328 -1.1766653 -0.9739452 -0.49113786 -1.0214581 -1.8092982 1.9086158 -0.2501958
346 2.5830362 0.66895163 -0.39881253 -0.50624734 -0.03075898 -1.6291407 0.015537934 -0.80511427 0.9341272 0.3641276 1.2852547 1.7401668
127 0.80307966 -2.6834416 0.3904065 0.10724175 1.1522102 -0.64379764 -0.44620317 0.1494979 -0.34810948 -0.2526796 1.5548146 2.2211013
137 0.5100295 -1.032451 2.0503523 0.6489206 -0.20152518 -0.11339755 -2.8292449 0.18902819 -0.873746 1.2209175 2.3791368 1.2300502
354 2.1376007 -0.58282363 0.09733146 -0.31836542 -1.3888507 -2.2438815 0.40727824 -0.49883714 1.2265283 -0.27957103 0.9645912 0.41245314
148 0.039796945 -0.9569268 -0.4679495 0.61396456 -0.42175984 -1.4299711 -1.4756271 1.130733 0.79767436 0.72652435 1.1524435 2.0411644
288 1.2881427 -1.4885727 0.51944274 -0.03379219 -0.26678482 -1.371566 -0.5328611 -0.7429723 -1.5699837 -2.0311463 -0.055129923 1.4097502
336 1.3382035 0.19152512 -0.30951005 0.0121609755 0.044882644 -2.5731518 -1.2584592 0.91894925 -0.32556784 1.1451312 1.235357 1.0026956
118 0.26149303 -0.87445647 0.33084407 -0.8925168 0.057734285 -0.7324321 -0.69362974 0.92393523 -1.5468553 -1.1899065 2.0449412 1.4143468
169 3.2356706 0.23367229 -1.2231097 0.1339198 0.50798583 -0.40125018 -0.26922095 -0.23910506 0.15988643 -0.9208311 1.0576973 2.049354
355 2.1606886 -0.98421544 0.43598235 -0.6832412 -1.2604519 -1.9740313 0.105606265 -0.6522257 1.1817731 -0.71143353 0.8757049 0.11614826
132 -0.26243785 -1.4043701 1.032674 -0.88093156 0.23307627 -1.038101 -0.72536844 -0.041379396 0.129152 -0.41215992 2.0361507 2.3892856
260 1.6366202 -0.20029059 0.074350506 0.01560144 -2.4155476 -0.1827074 -2.0833974 0.099015914 -1.0224946 0.58988243 0.43818074 0.020197818
343 1.1319296 -0.59037524 -0.7272331 -0.8506806 -0.90682733 -2.3415735 0.44688106 -0.5441947 -0.70946574 1.4343784 1.0395364 1.9944478
119 0.7067042 -0.6394477 0.25495705 -0.8255368 -0.29449332 -0.04717646 -0.6215709 0.97323734 -1.9338801 -1.0574136 2.2813349 1.6940359
108 1.118563 -1.1260922 0.375997 -0.32221794 -0.32866606 -1.8334463 -0.23083727 -0.7636174 -1.760251 -1.6180831 0.08682459 1.4781959
131 -0.21988474 -1.5535699 0.92986506 -0.7787683 0.34286356 -0.52927184 -0.6977871 -0.5336123 0.68114007 -0.39995712 2.5155666 2.706896
161 1.6508095 -0.9711671 -0.33297294 -0.37999263 -0.62773305 -1.0232203 0.25081113 -1.013473 -1.5453432 2.305572 1.187454 1.9090859
317 0.604425 -0.82058126 2.2604616 0.6122291 -0.26321948 -0.6209138 -2.9853513 0.115929335 -1.1487287 1.0802227 1.7908945 1.3654486
180 2.353993 -0.29628378 0.09112994 0.0256832 -1.3808341 -0.98233587 0.4057938 0.16220263 1.3224019 0.5627474 2.323452 0.6422391
171 2.835367 -0.37580636 -0.9294929 0.744735 -0.582003 -0.93890566 0.1357406 0.36728802 0.5886903 -0.26592764 0.61541027 2.3595376
110 1.0708655 -1.4176567 0.7970384 -1.4015665 -0.5934468 -1.4446802 0.38050273 -0.25455618 -0.59940845 -1.3878821 1.4025886 0.6614481
79 1.6717452 0.005730097 0.15997142 1.0526836 -2.4199708 -0.92219204 -1.672641 -0.40823188 -1.1340598 0.8602275 0.34972832 0.036479287
104 1.0003579 -0.22544149 -0.90342295 0.3183166 0.018930776 -2.305765 -0.40393436 -1.3625779 -0.86848146 -2.8636951 1.095421 1.0168847
136 1.1163323 -0.7043312 2.008976 0.26249394 0.24697916 0.081762634 -2.6305082 0.50406206 -0.88868994 1.001297 2.2287252 1.7233785
315 1.0441475 -0.5776613 1.8075905 0.495864 0.25457817 -0.6242685 -2.553077 0.911178 -0.1911247 0.41567004 1.6111653 2.1128373
338 2.174723 -0.43528464 -0.42036003 -0.56754404 -0.18654504 -1.3745946 -0.68345433 -0.17934984 0.27314216 2.0654936 0.7430611 1.4282198
348 3.348378 0.8927948 -0.70985395 -0.23925576 0.4068306 -0.96280915 -0.06558172 -0.6932352 -0.27036712 -0.4951232 1.3139802 1.5981216
304 0.0048879217 -1.4473063 0.4483879 0.3582532 -0.7334258 -1.1765909 -0.02035507 0.96351916 -0.61088705 -1.4414476 2.030859 1.4286532
307 1.0067934 -2.9993758 0.42555737 -0.19898777 0.6165986 -0.28710553 -0.5178947 0.2541363 -0.22357999 -0.31168264 1.3552372 2.2448363
311 -0.29830483 -1.9343424 1.1136981 -0.83762187 -0.29275513 -0.19824083 -0.8557482 -0.43785146 0.6870688 -0.51741433 2.2225096 2.5457613
316 0.79318357 -0.7290935 2.149326 0.82536274 0.071313165 -0.31974512 -2.9053588 0.47155017 -0.7530812 0.43924564 1.8678339 1.6717458
351 2.959567 0.03397925 -0.78115684 0.16680095 -1.067707 -1.1983889 -0.069772005 0.29200748 0.49814624 -0.39313993 0.3681824 2.4307132
78 1.7284478 0.05872794 0.24327683 0.8455159 -2.506312 -0.9592627 -1.488021 -0.21090539 -1.3046763 0.71213645 0.3938148 0.094997205
322 0.49380395 -1.2257558 -0.10123432 -1.0840623 -0.07607868 -1.756483 -2.1092649 1.0026736 0.5075745 0.66214377 0.742847 1.2875681
310 -0.0106617715 -2.4632714 0.83002657 -0.654112 -0.00020786129 0.33233517 -0.719545 -0.9731976 0.60310256 -0.03999623 2.1787195 2.5450733
312 -0.35781586 -1.7200506 1.1369618 -0.77794784 -0.32880062 -0.7439811 -0.8799054 0.11812146 0.23502626 -0.49352348 1.7399217 2.315655
130 0.10859246 -2.0564456 0.5887158 -0.53186494 0.48413694 -0.20553394 -0.27920347 -0.9505954 0.88733727 -0.31604958 2.5667942 2.6288881
103 0.6879585 -0.3815885 -0.1324399 0.009187469 -0.00033482545 -2.1035602 -0.35414323 -1.5578728 -0.4185675 -2.7498813 1.0274209 1.4416666
102 0.5504423 -0.4281927 0.38576633 -0.6298892 -0.11813584 -1.8736739 -0.5204272 -1.1564075 -0.59813887 -2.572318 0.93693525 1.5971546
344 1.2104967 -0.2298104 -0.8375111 -0.6751675 -0.75400156 -2.3688984 0.15509824 -0.24246924 0.058643844 1.440126 1.0074519 1.7868792
135 1.0193088 -0.46136504 1.6702664 0.4243538 0.4042195 -0.39699236 -2.3155265 0.9385274 -0.20037161 0.57424283 2.1172054 1.8624417
142 0.34815156 -1.259321 -0.26631957 -0.90894395 0.09867156 -1.665295 -1.9213697 1.1152606 0.898849 0.7912903 1.4920933 1.0795994
306 0.67683715 -2.517935 0.7002963 -0.26116857 0.43558285 -0.8273162 -0.66677845 0.6428555 -0.37198743 -0.49462974 1.1897608 2.2149572
172 2.7817855 -0.5203197 -0.6462022 0.45283994 -0.48507333 -1.2847897 0.2850877 0.53135186 0.80844426 0.22903088 0.93160605 2.076771
168 3.2596822 0.47416857 -1.1731794 0.016381182 0.6512734 -0.98085845 0.12791033 -0.90761554 0.169394 -0.4982884 1.3353852 1.7004447
290 1.0606341 -1.5124297 0.8784576 -1.3555619 -0.8591245 -1.4789073 -0.20440955 0.14039627 -0.25862595 -1.7424685 1.238221 0.52821934
198 0.5392838 1.0492413 -0.02253346 -0.12033957 -1.093745 0.18452106 -1.9386969 -1.1920171 -0.3469303 -0.56540686 1.6491147 -0.1101477
352 2.7977927 0.024088483 -0.20895244 0.22089937 -0.90499705 -1.403842 0.029985512 0.1852504 0.7862802 0.21625853 0.65869236 2.3996408
116 0.7452413 -1.18066 1.7503628 -0.54612553 0.05582037 -1.0559001 -0.42988676 -0.6362674 -1.176693 -1.6703649 1.9015127 0.56340426
10 -0.5589971 0.30774507 0.17019263 1.4827195 0.02751927 -0.73640835 -1.1788691 -1.8507969 0.11547919 -0.28613314 2.7286575 1.0013402
18 0.52875364 0.9893983 -0.1348476 0.303817 -1.4362334 0.008521288 -1.4369369 -1.4525505 -0.16059367 -0.46304804 1.8294679 -0.28499854
188 0.48623398 0.49344867 -0.06633018 0.8034155 1.0314236 -0.58033067 -0.9900613 -2.262905 -0.012334647 -0.57455957 2.6666362 0.7764074
296 0.95243734 -1.4312711 1.7336066 -0.21952875 -0.3726406 -1.0023847 -0.8298214 -0.18726097 -1.0018624 -2.0497973 1.5209996 0.2741197
4 0.8448415 0.20765384 -0.27271748 1.4537907 0.3746596 0.7619528 -1.1554105 -1.5668311 0.47658098 0.6357184 2.7647593 1.9278476
9 0.32026005 0.6435614 0.29886755 1.0018249 0.294526 -0.6359943 -1.4298705 -2.126815 0.9752963 0.11546519 2.306397 1.0489615
190 -0.5935036 0.18249545 0.22812688 1.3294964 0.41161346 -0.5777006 -1.6290762 -1.8640158 -0.14070192 -0.41124928 2.6167762 0.9855778
2 0.405585 0.24546264 -0.8103104 1.2359217 0.83512706 0.043830417 -1.6086111 -1.1873292 -0.24575527 1.3223093 3.0267694 1.3229051
189 0.26871687 0.5598396 0.38294318 0.79497445 0.7341225 -0.501062 -1.9928088 -2.2661164 0.545529 -0.06709347 2.2410898 1.0117404
8 0.4657684 0.5281289 -0.15882333 0.9358904 0.6149063 -0.6423969 -0.6072935 -2.2612023 0.29714677 -0.36930767 2.812107 0.7378567
182 0.48150092 0.22711945 -0.79526216 1.1996146 1.15825 0.20583703 -1.8084981 -1.2515348 -0.508925 0.897687 2.7940884 1.2006079
192 0.4563808 1.285848 -1.0124116 0.6244867 0.21006358 -0.42747718 -1.6803076 -0.87454647 0.19414455 -1.2885547 2.5527582 0.8309526
39 0.8747848 -1.3202059 -2.8216639 -0.16328412 -1.6384075 0.10798978 -0.32648936 -0.46932846 0.037957937 0.40065622 1.6155734 0.9262302
37 0.1983246 -1.4447216 -2.359457 -0.4576727 -1.5327837 0.13026126 -0.5640265 -0.87255013 1.0473092 -0.18791796 1.8094742 1.0641588
13 -0.25904506 1.4766331 -0.78250176 0.5578438 -0.6212456 -0.8159849 -1.546158 -1.0845029 0.32707164 -0.52991587 2.3188477 1.4349844
184 0.798435 0.21239969 -0.33397934 1.5222915 0.5452948 0.95509255 -1.387019 -1.5414779 -0.003555245 0.20826027 2.5981247 1.9714898
220 0.3195093 -0.5918792 -2.7418015 -0.50200033 -1.7736923 -0.3994634 -0.6619641 -1.2149037 -0.120319776 -0.0711066 0.8645217 1.3416882
193 -0.2855009 1.3917937 -0.81742746 0.32546946 -0.24851762 -0.6883286 -1.8760593 -1.1860251 0.10949703 -0.7704242 2.218492 1.3670341
219 0.5622937 -1.320207 -2.8528812 -0.26439095 -1.5193787 0.04848211 -0.49873948 -0.3151681 -0.30466726 0.09858897 1.3871961 1.0998487
212 1.0786031 -0.40588257 -2.151194 -1.3276078 -0.72652143 0.82724077 -1.162582 -1.2655249 -0.3559883 0.39977717 1.4275403 1.0565523
38 0.81887215 -1.1019181 -2.479264 -0.23892118 -2.1164618 0.37535775 -0.9243432 -0.9545645 0.43151185 -0.50130695 1.2055023 0.5890519
224 0.90369636 -2.0456471 -2.071066 0.14594834 -1.0670215 0.10456242 -0.14111617 -1.498916 -0.41375408 -1.2624202 0.77474403 0.91383135
187 0.5819948 1.0445602 0.423756 1.2924147 0.7809094 -0.87566495 -1.559089 -1.5241134 -0.28823045 -0.23965976 2.697874 0.6823705
218 0.5548198 -1.2510539 -2.530089 -0.341515 -1.8996552 0.38928133 -1.1522558 -0.78665936 0.15907107 -0.64113134 1.0594414 0.72195345
40 0.6161605 -0.5585995 -2.6958268 -0.38073567 -1.9990739 -0.4327138 -0.41304487 -1.3871579 0.39921978 0.19927749 1.1625568 1.1523842
12 0.33697024 1.2100266 -1.0525868 0.72446114 -0.10774297 -0.55941474 -1.332393 -0.908942 0.46585014 -1.1075004 2.8609948 0.7675262
7 0.57866114 1.1075531 0.39744908 1.4542754 0.47280586 -1.0336287 -1.1636068 -1.3011531 -0.03924067 -0.08349956 2.9335792 0.7313752
20 -0.34525612 0.3339544 -0.555239 0.11667694 -1.3089063 0.13751264 -1.9212922 -1.1445173 0.2785219 -0.29646024 2.7399662 -0.29775113
3 0.61514336 0.70714104 -0.69193363 1.1016852 0.3990654 -0.059781685 -1.2754524 -2.1137407 -0.40961292 1.3062557 2.2516034 1.6409464
207 0.9495057 0.18945895 -1.9051024 -1.1499496 -0.69420713 -0.26521966 -0.41879618 -0.97337013 -1.2135803 -0.5084548 2.3316748 -0.104170084
15 0.28196755 1.0529778 -0.9504287 0.88477075 -0.14806241 -0.8168219 -1.8861687 -0.7078216 1.0491446 -0.513727 2.7245839 0.32427225
217 -0.07548306 -1.5179749 -2.3982706 -0.5239971 -1.4814147 0.102232166 -0.68803835 -0.7981039 0.71758026 -0.4423113 1.7251422 1.2561618
44 1.2073318 -1.9402678 -1.8396856 0.2482969 -1.2699529 0.1243245 0.055152696 -1.8188021 0.004127064 -1.0620618 0.79325 0.69195986
34 1.0150633 -0.72242284 -2.1314733 -1.6023394 -0.4251904 0.2994386 -1.0508336 -1.3618271 0.5332991 -0.112787224 1.5745809 0.72055626
183 0.5758413 0.78067935 -0.66004056 1.1426935 0.5463467 0.056301463 -1.6381011 -2.189871 -0.65141124 0.94748265 2.0316374 1.7270743
19 0.26919094 0.8398432 0.00227784 -0.3975661 -1.1727492 -0.06642573 -1.1954188 -1.4185473 -0.029642351 -0.5708014 2.9598675 -0.21371834
200 -0.40753907 0.28613907 -0.4341757 -0.1045906 -0.9481792 0.2897835 -2.2560692 -1.1448121 -0.019544102 -0.4990581 2.5083873 -0.1574887
32 1.4054995 -0.22556832 -2.0848126 -1.3004305 -1.063483 0.80037296 -0.98868626 -1.4533669 -0.087258235 0.53017867 1.5481685 0.8717765
27 1.2910609 0.27031672 -1.9068261 -1.2128912 -0.89588875 -0.28207135 -0.2940666 -1.056012 -0.90035474 -0.35188827 2.5326254 -0.20243178
5 0.4757407 0.768624 -0.39491686 0.87316304 0.50720024 -0.020630382 -0.8268359 -1.3467554 -0.53488964 0.8284208 2.844729 2.2018192
199 0.31099883 0.854301 0.15814787 -0.52969563 -0.80173486 0.074807435 -1.5100536 -1.4201436 -0.23143311 -0.75387484 2.815613 -0.16267334
214 0.76711226 -0.6628242 -2.0939832 -1.6275905 -0.3225752 0.33464482 -1.2704171 -1.2620065 0.29805285 -0.24980089 1.4684814 0.79711145
25 0.08081082 0.16261958 -1.2467062 -0.8333659 -0.6264096 -1.3794842 -1.4758782 -1.9414977 0.12376176 -0.29053035 2.1778927 -0.95275545
208 0.88612694 -0.21395503 -2.040731 -1.5606805 -0.5068618 -0.26876336 -1.0893116 -0.59851694 -0.47747216 -1.2804039 2.2565095 -0.21430203
195 0.29118708 1.0783552 -0.8125867 0.7549249 0.15352333 -0.53644305 -2.2456276 -0.68794787 0.7187642 -0.7607122 2.4693022 0.41077042
194 -0.065693565 1.02276 -0.49792755 -0.270478 0.37620673 -0.70409536 -1.8911271 -0.89760995 0.7286171 -0.6351172 2.9681222 1.058461
14 -0.09046519 1.1661632 -0.60647047 -0.1436905 -0.03622477 -0.9370009 -1.5531514 -0.9214448 0.82571167 -0.23927194 2.9324584 1.0738175
35 0.81234676 -0.68772894 -1.6869913 -1.768473 -1.107312 0.41012314 -0.35405448 -1.6185678 0.1262978 -0.07362888 2.0990145 0.8131417
210 0.51909554 -0.3883122 -2.2511957 -1.0481462 -0.16914646 -0.22163922 -0.92478853 -0.5996677 -0.6498919 0.0045589027 2.8130722 -0.22998652
185 0.5273615 0.77792364 -0.25941843 0.7866547 0.8023391 0.093583986 -1.0747409 -1.3787479 -0.92307353 0.5527214 2.6323433 2.2260303
43 0.7096828 -1.5468184 -2.0414455 0.9268765 -0.8379522 0.55902755 0.12667099 -1.9918666 -0.107415535 -0.32642585 1.6501046 1.1732621
225 0.65490603 -2.1180851 -2.336409 0.041497827 -0.529037 -0.50847834 0.37583002 -1.4075743 -0.33821893 -0.7476031 1.2699951 1.0550951
205 -0.024123695 0.15469216 -1.2668483 -0.98314667 -0.31646252 -1.1701379 -1.7375783 -1.9626442 -0.3708566 -0.40811917 2.0869007 -0.7869987
30 0.87525225 -0.35422465 -2.2100835 -0.9187518 -0.29254282 -0.33159506 -0.64085686 -0.8974924 -0.22640316 0.14133096 2.9084232 -0.44991082
204 0.125979 0.6777147 -1.3303473 -0.9680023 -0.6870149 -1.1566663 -1.3546306 -1.870511 -1.1383862 -0.118496604 2.0213833 -0.39326197
215 0.5105042 -0.68321383 -1.8126396 -1.8114781 -1.0362697 0.4180963 -0.55575985 -1.53755 -0.3042281 -0.12900975 1.8778954 1.0555587
42 0.37596488 -1.4307173 -2.0408654 0.35717905 -1.422039 -0.3199259 0.091675684 -2.5175304 -0.2546873 -0.580843 1.2675796 0.7823366
17 0.047578417 0.9047299 -0.15383294 0.055290908 -1.3050166 -0.40558922 -1.401001 -0.64190644 -0.21049854 0.10080548 2.891127 -0.4616649
24 0.2491575 0.7966624 -1.3738681 -0.8944546 -0.9797049 -1.2615685 -1.1562837 -1.922614 -0.68028 -0.0169317 2.105167 -0.36653137
222 -0.05575695 -1.6363055 -2.103269 0.22158505 -1.1917706 -0.27937743 -0.14039017 -2.2755 -0.55250704 -0.83352256 1.2527486 1.0231106
209 1.1170559 -0.10368095 -2.291839 -0.74379617 -0.35489875 0.34118518 -1.2799265 -1.3208624 -0.74213195 -0.9041702 2.2299595 -0.3929061
197 0.16748422 0.9267687 -0.09700913 -0.3083925 -0.92502344 -0.15056355 -1.7916487 -0.49199837 -0.51990485 -0.057019055 2.7918148 -0.36093038
22 0.76206535 0.85763097 -1.3761675 -0.9877199 -0.8703271 -0.88138807 -1.9237002 -1.3255674 0.29187167 0.40297464 1.8810892 -0.567614
28 1.175137 -0.20356065 -2.1222107 -1.446723 -0.7110552 -0.3788808 -0.8241094 -0.8043076 -0.053032875 -1.162768 2.4247203 -0.35877335
202 0.5886332 0.7806798 -1.3640252 -1.1802092 -0.58773804 -0.7147754 -2.0971572 -1.2311978 -0.29944837 0.31781736 1.8454844 -0.47449005
33 1.2182319 -1.1342871 -2.0710511 -1.7856845 -1.2548536 0.019470524 -0.8062219 -1.5458038 -0.15814573 0.44365147 1.4043077 0.118025735
29 1.3981695 -0.0002946813 -2.3370626 -0.66603756 -0.48258144 0.21262176 -1.0458552 -1.4754456 -0.30015835 -0.74800676 2.407314 -0.42693776
223 0.40355855 -1.5312439 -2.2313643 0.7869549 -0.57762885 0.3804665 -0.063574895 -1.6928134 -0.6008458 -0.62072474 1.4481539 1.4071758
49 1.2004598 -1.505319 -2.2694523 0.923683 -0.32410064 -0.6815889 -0.66489774 -2.144533 0.050511897 0.26416144 0.47463953 0.16336988
228 0.18920733 -1.8765824 -2.440848 0.9836518 -0.07716745 -1.1918716 -1.1178435 -1.8735303 0.28549466 -0.36642578 0.5443768 0.6780133
45 0.97974247 -1.9724718 -2.263687 0.16876794 -0.6294997 -0.375527 0.6030948 -1.687916 0.043202415 -0.4388109 1.4244174 0.95089495
213 0.994965 -1.1902696 -2.0466475 -1.8782948 -1.1495757 0.26802686 -1.1043386 -1.3481255 -0.599816 0.24481162 1.2806349 0.24162257
23 0.33014843 0.7050266 -1.5235085 -0.95107025 -1.276118 -1.3234015 -1.4713141 -0.9226887 -0.11528747 -0.27077326 1.8873179 -0.5503343
203 0.023095308 0.72827554 -1.5625376 -1.0283252 -0.9270819 -1.2374758 -1.7738639 -0.9611081 -0.47892404 -0.5930396 1.8335687 -0.32331285
229 1.0369474 -1.746736 -2.6791267 0.93060505 -0.17989893 -0.74508375 -0.9047603 -1.9108318 -0.36424848 -0.015044729 0.43998882 0.3175831
227 0.49073234 -2.2998204 -1.9219545 0.8123533 -0.11061233 0.016276985 -1.1513963 -1.69779 0.073387206 0.06114695 0.31367347 1.1086452
50 0.7613305 -1.6802382 -1.9012234 1.2887242 -0.77887845 -0.6793202 -0.50418127 -1.9065369 -0.20611705 0.43381083 0.091925405 1.0828869
47 0.72198397 -2.2268114 -1.7163198 0.8941177 -0.3253847 0.17149228 -1.1041948 -1.9392731 0.39058593 0.1991433 0.3475891 0.96470535
230 0.4339633 -1.9419476 -2.223773 1.3758605 -0.7292363 -0.7753429 -0.77456963 -1.4139574 -0.47511756 0.1840275 0.018418852 1.4251089
48 0.39133722 -1.6751809 -2.107204 0.78372216 -0.35339633 -1.1435035 -0.93565583 -2.1440334 0.709054 -0.21618344 0.5668938 0.26490614
